{"type":"NeuralNetwork","sizes":[9,9,5,5,4],"layers":[{"weights":[],"biases":[]},{"weights":[[-15.402615547180176,-47.16147232055664,-4.548829078674316,-36.40284729003906,-41.21867752075195,63.699546813964844,-19.27875518798828,-19.66873550415039,15.621070861816406],[-23.6247615814209,78.35038757324219,17.74702262878418,-40.562137603759766,-25.754817962646484,-40.123046875,-38.167701721191406,-29.586862564086914,1.9691094160079956],[3.9617605209350586,-70.52742004394531,-6.903369426727295,83.33092498779297,-20.46644401550293,-49.805816650390625,-61.363243103027344,-4.016803741455078,6.649397373199463],[20.956411361694336,-58.76884078979492,45.73454284667969,28.986276626586914,20.95733070373535,-32.558109283447266,-32.437618255615234,-43.686912536621094,0.2996712923049927],[-5.760842323303223,-50.1660041809082,-22.933185577392578,-23.33418846130371,6.523782730102539,43.61378860473633,17.6148624420166,7.0654706954956055,47.657649993896484],[-26.261337280273438,60.28986740112305,24.907392501831055,-78.7860107421875,-17.93923568725586,2.2161688804626465,-54.91259002685547,8.549219131469727,-54.66266632080078],[-24.017953872680664,65.72964477539062,-16.416454315185547,48.6697998046875,-1.8752577304840088,50.94002151489258,-84.13013458251953,-10.645368576049805,-10.542391777038574],[-10.721863746643066,65.06549072265625,8.7200927734375,67.33159637451172,0.6211407780647278,-115.95702362060547,46.529052734375,-3.2792017459869385,15.101602554321289],[5.8410539627075195,-40.965293884277344,-19.23739242553711,45.788238525390625,0.8844107389450073,89.0644302368164,-29.778539657592773,-22.855905532836914,1.4312397241592407]],"biases":[14.165853500366211,-19.056909561157227,15.37647533416748,-37.422245025634766,-8.909749984741211,17.664344787597656,13.139713287353516,4.439037322998047,3.2454376220703125]},{"weights":[[-6.048428535461426,29.48565673828125,-36.22948455810547,-18.609729766845703,45.091041564941406,-10.209653854370117,-23.588350296020508,13.24350357055664,-53.30974197387695],[-0.40844443440437317,-42.6353645324707,48.183448791503906,11.993611335754395,-12.106210708618164,-36.288082122802734,-33.789913177490234,32.63130569458008,-22.36159324645996],[-29.89851951599121,9.91156005859375,36.155452728271484,10.724939346313477,-0.5362720489501953,47.54896926879883,25.81907081604004,35.514225006103516,-12.51028823852539],[16.63637924194336,30.287527084350586,-21.61033058166504,-40.677066802978516,-21.508895874023438,24.348670959472656,-33.14213943481445,23.083263397216797,-27.38747787475586],[-20.125158309936523,61.366851806640625,-11.52147388458252,5.319111347198486,-43.68498992919922,-29.094921112060547,36.28555679321289,23.57849884033203,-29.44245147705078]],"biases":[22.789331436157227,24.084856033325195,-53.83442306518555,22.44207000732422,-23.58422088623047]},{"weights":[[-18.099910736083984,-3.222315549850464,20.72771644592285,-7.2077155113220215,13.326433181762695],[23.397737503051758,-5.83992338180542,0.7402216792106628,16.503334045410156,-31.652368545532227],[-12.874034881591797,16.47458839416504,-9.461143493652344,-18.67570686340332,-7.554713726043701],[-24.76848793029785,-18.91360855102539,1.7586944103240967,-2.933232545852661,-7.494290351867676],[-6.933445930480957,-24.448814392089844,-47.50983428955078,12.911763191223145,-40.16804122924805]],"biases":[-14.667374610900879,-25.375516891479492,21.541366577148438,14.592567443847656,28.91650390625]},{"weights":[[6.1310882568359375,-40.556304931640625,3.1836447715759277,-10.452850341796875,2.388942241668701],[-11.203776359558105,-2.7769415378570557,49.26615524291992,11.38533878326416,0.15020360052585602],[-3.122310161590576,-3.5652365684509277,-4.725295543670654,2.3007540702819824,-21.688793182373047],[-54.69279098510742,4.378612995147705,4.153301239013672,-60.262393951416016,-0.5460968017578125]],"biases":[-4.216870307922363,-49.62160110473633,3.5644986629486084,-4.955078601837158]}],"inputLookup":{"0":0,"1":8,"2":6,"3":7,"4":1,"5":2,"6":3,"7":4,"8":5},"inputLookupLength":9,"outputLookup":{"2":3,"4":2,"6":0,"8":1},"outputLookupLength":4,"options":{"inputSize":9,"outputSize":5,"binaryThresh":0.5,"hiddenLayers":[9,5,5],"activation":"sigmoid","leakyReluAlpha":0.01},"trainOpts":{"activation":"sigmoid","iterations":20000,"errorThresh":0.005,"log":true,"logPeriod":2000,"leakyReluAlpha":0.01,"learningRate":0.3,"momentum":0.1,"callbackPeriod":10,"timeout":"Infinity","beta1":0.9,"beta2":0.999,"epsilon":1e-8}}