{"type":"NeuralNetwork","sizes":[9,9,5,5,4],"layers":[{"weights":[],"biases":[]},{"weights":[[15.39794921875,-86.77544403076172,2.306051731109619,-104.86092376708984,6.90699577331543,101.74224853515625,73.31512451171875,5.443851470947266,2.8128042221069336],[-25.58266830444336,107.80897521972656,-4.815107345581055,-63.55527877807617,-25.809310913085938,-69.83141326904297,-41.52692794799805,-13.508434295654297,-15.034140586853027],[41.92111587524414,-139.17474365234375,10.49159049987793,135.80267333984375,-10.818361282348633,-39.55031967163086,-30.922143936157227,-2.8479855060577393,-11.113845825195312],[12.924813270568848,-73.23062133789062,4.376889228820801,85.18339538574219,26.411924362182617,-9.492209434509277,-65.4556655883789,-44.07872009277344,10.280932426452637],[-8.802063941955566,-52.56608200073242,-19.265352249145508,-38.40868377685547,5.92622184753418,76.96570587158203,50.23309326171875,-18.119382858276367,29.89927864074707],[8.485522270202637,152.47561645507812,15.540241241455078,-97.0369644165039,-7.2467241287231445,-67.70648193359375,-57.780670166015625,-16.26852035522461,-56.74687957763672],[-33.590599060058594,113.09825897216797,-1.6935267448425293,81.72175598144531,24.2442569732666,70.20970153808594,-146.62057495117188,-14.116372108459473,3.069314479827881],[-68.22561645507812,135.61573791503906,10.443188667297363,98.52629089355469,-30.102611541748047,-160.3542022705078,102.87408447265625,29.70374870300293,-29.882673263549805],[-1.7603471279144287,-47.68453598022461,4.378037929534912,84.80548095703125,-1.2291491031646729,88.09381866455078,-28.76876449584961,2.987241744995117,7.124080657958984]],"biases":[-1.5915077924728394,-57.40122604370117,-4.391883850097656,-24.729982376098633,-56.2389030456543,0.26933589577674866,20.339893341064453,42.53691101074219,35.91982650756836]},{"weights":[[3.2944157123565674,39.1490478515625,-29.401174545288086,-22.31853485107422,45.02130889892578,13.615639686584473,-47.04130935668945,48.519283294677734,-44.799556732177734],[19.996246337890625,-41.153900146484375,49.43209457397461,-8.894328117370605,-32.21747970581055,-30.23615074157715,-52.89448165893555,65.11066436767578,-17.574813842773438],[-18.545074462890625,16.751333236694336,35.11588668823242,23.7581787109375,-20.270505905151367,66.30572509765625,12.32071590423584,43.62056350708008,-28.906280517578125],[5.948846340179443,39.56669235229492,-31.06017303466797,-40.79214859008789,-17.310218811035156,31.938907623291016,-30.937246322631836,54.48088073730469,-14.99783992767334],[-54.70121765136719,52.52794647216797,-4.837062835693359,6.927718162536621,-45.08710479736328,-15.386667251586914,49.762630462646484,28.57822608947754,-38.624778747558594]],"biases":[29.955188751220703,12.073751449584961,-56.13669967651367,13.690084457397461,-10.056596755981445]},{"weights":[[-27.214181900024414,12.810139656066895,18.028127670288086,-5.824405193328857,1.4559403657913208],[11.209871292114258,-21.740482330322266,-0.19168898463249207,20.613365173339844,-32.13379669189453],[-0.4932497441768646,14.585040092468262,-22.0186767578125,-28.86354637145996,-16.207904815673828],[-29.918054580688477,-30.881742477416992,-16.973308563232422,3.715404510498047,1.6638422012329102],[-16.108732223510742,-25.55461311340332,-50.99000930786133,-17.563608169555664,-44.7103385925293]],"biases":[-16.409242630004883,-3.0706160068511963,34.355873107910156,21.629037857055664,39.43370819091797]},{"weights":[[2.269319534301758,-64.00039672851562,2.481813669204712,1.3987988233566284,-0.368689626455307],[-87.45787048339844,-1.748113989830017,61.87847900390625,0.8402093052864075,2.393570899963379],[-3.5122389793395996,-3.032261371612549,-3.7267446517944336,-4.332866668701172,-16.836637496948242],[-3.3860814571380615,4.232812404632568,4.035308837890625,-56.25212097167969,-3.6105093955993652]],"biases":[-2.629497528076172,-63.295013427734375,3.0542409420013428,-4.776233673095703]}],"inputLookup":{"0":0,"1":8,"2":6,"3":7,"4":1,"5":2,"6":3,"7":4,"8":5},"inputLookupLength":9,"outputLookup":{"2":3,"4":2,"6":0,"8":1},"outputLookupLength":4,"options":{"inputSize":9,"outputSize":5,"binaryThresh":0.5,"hiddenLayers":[9,5,5],"activation":"sigmoid","leakyReluAlpha":0.01},"trainOpts":{"activation":"sigmoid","iterations":20000,"errorThresh":0.005,"log":true,"logPeriod":2000,"leakyReluAlpha":0.01,"learningRate":0.3,"momentum":0.1,"callbackPeriod":10,"timeout":"Infinity","beta1":0.9,"beta2":0.999,"epsilon":1e-8}}