{"type":"NeuralNetwork","sizes":[9,9,5,5,4],"layers":[{"weights":[],"biases":[]},{"weights":[[5.109806060791016,4.923774242401123,25.39704132080078,-39.536094665527344,-15.021041870117188,44.49159622192383,27.336536407470703,53.09556579589844,-8.319110870361328],[-51.59489822387695,-90.93251037597656,-40.52043533325195,-23.428651809692383,-59.31047821044922,70.79603576660156,-16.103511810302734,-4.0508713722229,20.41391944885254],[-1.7865996360778809,67.8321762084961,-5.560880661010742,108.31546020507812,2.450593948364258,-103.95415496826172,-82.29180145263672,5.922175884246826,7.577391624450684],[17.1812686920166,-33.56089401245117,4.031144142150879,-34.33149719238281,6.7031779289245605,-118.88833618164062,130.7261962890625,-9.059999465942383,11.302204132080078],[12.689376831054688,96.53704833984375,-19.08437728881836,-65.49029541015625,-12.906553268432617,-78.60995483398438,-13.338892936706543,-2.5698885917663574,-16.029470443725586],[-3.2237024307250977,-16.753400802612305,-26.46501922607422,-25.82584571838379,-19.730236053466797,-91.18596649169922,115.28443908691406,-23.35359001159668,4.224902629852295],[-39.807518005371094,49.25953674316406,-7.05685567855835,-60.50813293457031,20.510379791259766,-64.28762817382812,-25.324954986572266,6.145627021789551,-22.62502098083496],[-19.18370819091797,43.0289306640625,-20.044143676757812,21.025794982910156,-60.072872161865234,-5.469181537628174,-45.095436096191406,5.076955795288086,-0.7324389219284058],[-12.337888717651367,-76.20570373535156,9.595566749572754,117.51615905761719,13.021615982055664,-40.467769622802734,-40.064537048339844,-9.750478744506836,-1.6960519552230835]],"biases":[21.31302261352539,-11.713274002075195,-2.506960391998291,0.9646274447441101,-11.278280258178711,-31.173126220703125,-16.113611221313477,-37.134944915771484,-13.471268653869629]},{"weights":[[24.959218978881836,-39.52236557006836,-3.3500492572784424,17.824039459228516,19.37320899963379,19.07040023803711,27.429615020751953,7.967067718505859,-45.5884895324707],[-1.8729467391967773,-40.39959716796875,26.59870147705078,-20.753211975097656,-43.57463455200195,-36.850040435791016,-12.150436401367188,-17.263084411621094,26.59490394592285],[22.54068374633789,2.787832260131836,-51.065799713134766,-37.56486511230469,-5.000121593475342,46.92606735229492,-10.541655540466309,-6.751548767089844,1.1123031377792358],[-15.22469425201416,28.705320358276367,25.129669189453125,-24.557598114013672,28.161014556884766,-21.40146255493164,34.467376708984375,11.743637084960938,-18.093015670776367],[-17.388805389404297,-30.52503204345703,44.380943298339844,12.170101165771484,29.835294723510742,-11.082544326782227,13.238083839416504,30.50277328491211,-3.5079753398895264]],"biases":[-8.255230903625488,16.471784591674805,-24.63636016845703,-8.212006568908691,-23.943267822265625]},{"weights":[[10.606473922729492,-25.5769100189209,-11.318487167358398,-18.483360290527344,-17.131418228149414],[17.25664520263672,-18.418737411499023,25.236085891723633,-9.195076942443848,-25.985342025756836],[-31.766443252563477,33.51123809814453,20.23640251159668,-9.276257514953613,-10.957202911376953],[24.257080078125,-34.815372467041016,14.408613204956055,10.860389709472656,6.446345806121826],[-12.082947731018066,2.519362688064575,40.90141677856445,-14.269901275634766,-25.01911163330078]],"biases":[21.482141494750977,-11.320194244384766,-7.986216068267822,-32.872650146484375,-2.7426059246063232]},{"weights":[[-0.3183039128780365,-1.6258633136749268,-3.720963478088379,4.251582145690918,-32.438331604003906],[-1.2341158390045166,-22.620616912841797,3.430936336517334,-23.930830001831055,-7.037336826324463],[0.7814527750015259,-2.0669138431549072,-2.2929723262786865,-48.730506896972656,6.101552486419678],[41.74427032470703,2.992743968963623,-22.524831771850586,31.92820930480957,37.733680725097656]],"biases":[-0.8398474454879761,-0.5911701917648315,-1.4886770248413086,-42.58281707763672]}],"inputLookup":{"0":0,"1":8,"2":6,"3":7,"4":1,"5":2,"6":3,"7":4,"8":5},"inputLookupLength":9,"outputLookup":{"2":3,"4":0,"6":1,"8":2},"outputLookupLength":4,"options":{"inputSize":9,"outputSize":5,"binaryThresh":0.5,"hiddenLayers":[9,5,5],"activation":"sigmoid","leakyReluAlpha":0.01},"trainOpts":{"activation":"sigmoid","iterations":20000,"errorThresh":0.005,"log":true,"logPeriod":2000,"leakyReluAlpha":0.01,"learningRate":0.3,"momentum":0.1,"callbackPeriod":10,"timeout":"Infinity","beta1":0.9,"beta2":0.999,"epsilon":1e-8}}