{"type":"NeuralNetwork","sizes":[9,9,5,5,4],"layers":[{"weights":[],"biases":[]},{"weights":[[27.366025924682617,24.330846786499023,10.407976150512695,-79.0202865600586,4.491250991821289,37.915679931640625,41.83378219604492,45.776058197021484,11.554229736328125],[-57.6368293762207,-96.95101928710938,-41.53158187866211,-32.7264404296875,-40.9837646484375,74.54464721679688,-38.79408645629883,2.633256196975708,-60.33128356933594],[31.454246520996094,143.42755126953125,36.35742950439453,152.24301147460938,9.861454963684082,-116.68138885498047,-213.68658447265625,2.996716022491455,6.3674421310424805],[2.935446262359619,68.04720306396484,67.94561004638672,-23.10408592224121,9.949069023132324,-162.67742919921875,188.70973205566406,-12.407925605773926,-6.8490753173828125],[-21.361391067504883,140.69564819335938,-50.52395248413086,-65.40058135986328,25.579334259033203,-170.91165161132812,37.34383010864258,47.31962966918945,-7.697856903076172],[-28.595794677734375,-68.68878936767578,-75.9822006225586,-53.17512130737305,-68.39322662353516,-163.4059600830078,180.1834716796875,33.7793083190918,-80.40909576416016],[0.10063228011131287,150.0834197998047,-10.000819206237793,-28.902130126953125,-11.851122856140137,-59.89690017700195,-111.59434509277344,-35.76483917236328,-3.140690565109253],[-16.1196231842041,80.28466033935547,-13.934041023254395,35.83552932739258,-36.55393981933594,-12.908072471618652,-50.38988494873047,17.56275177001953,-1.1168303489685059],[2.927095413208008,-148.04478454589844,-11.584440231323242,195.8415985107422,-11.36273193359375,-72.10498809814453,-42.600868225097656,-33.00079345703125,-2.4324657917022705]],"biases":[13.189577102661133,-53.87135696411133,-12.385614395141602,0.36777371168136597,43.11293411254883,-32.32708740234375,-9.95125675201416,-21.272470474243164,3.1844732761383057]},{"weights":[[28.96650505065918,-44.76430892944336,-21.10601234436035,22.249961853027344,17.125173568725586,31.34015464782715,13.802311897277832,2.771608829498291,-49.098854064941406],[-9.5989990234375,-41.7274055480957,36.688331604003906,-52.47427749633789,-17.695789337158203,-32.112762451171875,-10.898260116577148,-11.855789184570312,40.60592269897461],[33.32526397705078,-18.33954620361328,-52.83880615234375,-27.59770393371582,-19.883115768432617,62.0469970703125,-41.13204574584961,-14.696978569030762,-11.462369918823242],[-29.66867446899414,31.4356632232666,16.1806640625,-8.462384223937988,13.456995964050293,-24.684791564941406,45.4329719543457,22.66064453125,-18.911827087402344],[-29.22430419921875,-31.663774490356445,19.662471771240234,13.831266403198242,41.50816345214844,2.026747465133667,34.67229080200195,36.85643768310547,25.2241268157959]],"biases":[-0.09893415123224258,39.72626876831055,-15.344595909118652,-29.62875747680664,-28.00264549255371]},{"weights":[[-19.936494827270508,-29.14190673828125,-4.315370559692383,-36.57658004760742,-18.876134872436523],[16.7058162689209,-39.83449935913086,20.977705001831055,-38.74155807495117,-7.069018363952637],[-38.41864776611328,11.2711820602417,16.428985595703125,-9.409798622131348,28.86739158630371],[15.208928108215332,-32.43772506713867,20.620288848876953,6.666379928588867,20.598791122436523],[-4.562575340270996,-4.342225074768066,44.75497817993164,-8.238771438598633,-26.291671752929688]],"biases":[57.1327018737793,-14.172682762145996,-8.556404113769531,-38.83710479736328,4.515981197357178]},{"weights":[[0.30013489723205566,-0.9147622585296631,-40.960296630859375,20.435327529907227,-65.53421020507812],[-0.1329820156097412,-20.065004348754883,4.301424026489258,-7.130992889404297,-6.652967929840088],[0.30440419912338257,-3.398334264755249,-2.128474712371826,-65.48013305664062,5.364068984985352],[56.184059143066406,3.8540725708007812,-20.613088607788086,3.685955047607422,-3.216494083404541]],"biases":[-1.185423731803894,-0.9013010859489441,-1.032926321029663,-57.21139907836914]}],"inputLookup":{"0":0,"1":8,"2":6,"3":7,"4":1,"5":2,"6":3,"7":4,"8":5},"inputLookupLength":9,"outputLookup":{"2":3,"4":0,"6":1,"8":2},"outputLookupLength":4,"options":{"inputSize":9,"outputSize":5,"binaryThresh":0.5,"hiddenLayers":[9,5,5],"activation":"sigmoid","leakyReluAlpha":0.01},"trainOpts":{"activation":"sigmoid","iterations":20000,"errorThresh":0.005,"log":true,"logPeriod":2000,"leakyReluAlpha":0.01,"learningRate":0.3,"momentum":0.1,"callbackPeriod":10,"timeout":"Infinity","beta1":0.9,"beta2":0.999,"epsilon":1e-8}}