{"type":"NeuralNetwork","sizes":[9,9,5,5,4],"layers":[{"weights":[],"biases":[]},{"weights":[[37.79115295410156,-5.760435581207275,-36.76467514038086,-29.767711639404297,5.1967973709106445,65.21534729003906,-16.99187469482422,-17.24022102355957,-26.904394149780273],[30.591392517089844,-47.04548263549805,1.6083871126174927,103.7064437866211,0.31534329056739807,-84.87105560302734,-8.924912452697754,0.7029628753662109,-14.768840789794922],[44.247222900390625,-58.81950378417969,30.63961410522461,56.114013671875,-28.299884796142578,3.4362096786499023,-21.24871826171875,-44.06332778930664,7.655877590179443],[0.8737223148345947,82.02078247070312,-5.961576461791992,-83.93608093261719,-16.038911819458008,-60.40057373046875,60.707481384277344,-13.16895866394043,11.422533988952637],[-13.783116340637207,-37.90367889404297,-49.29389190673828,6.452579021453857,18.463218688964844,73.50193786621094,-78.1640625,-13.669421195983887,-5.370382785797119],[-9.274185180664062,-109.04656982421875,11.55163288116455,6.005564212799072,-18.78533172607422,64.83016967773438,111.12532043457031,18.20378875732422,5.91904354095459],[-27.28185272216797,-32.97324752807617,-23.037607192993164,-53.47205352783203,-3.6322789192199707,127.34052276611328,-47.450382232666016,-4.8755598068237305,2.4694814682006836],[-63.98683166503906,-84.01303100585938,17.817920684814453,-38.05049514770508,39.37632369995117,-59.63645935058594,50.13872528076172,29.56079864501953,16.397733688354492],[25.243892669677734,-91.29054260253906,-41.53329086303711,-53.10463333129883,-8.675189971923828,9.890591621398926,105.2430191040039,10.768447875976562,5.11548376083374]],"biases":[-48.02452087402344,-5.982328414916992,23.80484962463379,6.424340724945068,17.997751235961914,-6.152058124542236,-13.074049949645996,-26.282270431518555,-15.589776992797852]},{"weights":[[1.260374665260315,18.978046417236328,44.127105712890625,-33.29061508178711,46.963294982910156,21.55858039855957,15.228355407714844,-45.39993667602539,-30.17803382873535],[-29.640718460083008,-16.92032241821289,-29.927188873291016,-8.722484588623047,-21.869535446166992,52.01015853881836,-25.25834846496582,37.352596282958984,34.12955093383789],[-42.62427520751953,21.26490020751953,-24.984743118286133,-13.54631233215332,-0.6485894918441772,6.45078182220459,4.585465908050537,-7.359057426452637,-29.520709991455078],[2.8824360370635986,-25.737112045288086,-25.622894287109375,-37.747901916503906,-14.676241874694824,13.083834648132324,64.66190338134766,54.83742904663086,14.621979713439941],[38.25065612792969,-55.05589294433594,-24.1350154876709,-38.570945739746094,-2.7325878143310547,43.09727478027344,25.084897994995117,-14.263959884643555,-34.15114974975586]],"biases":[-34.28892517089844,-15.620574951171875,12.288164138793945,2.8305575847625732,7.040860176086426]},{"weights":[[-16.97967529296875,-7.150139331817627,12.957056999206543,-37.62282943725586,-21.058683395385742],[-39.1685905456543,-33.67428970336914,22.013843536376953,-15.859471321105957,24.036794662475586],[-24.340530395507812,24.174745559692383,25.736597061157227,-25.625574111938477,-26.394376754760742],[-5.334228515625,6.6965532302856445,-17.786169052124023,11.516268730163574,-23.876157760620117],[0.7638553380966187,-4.297577381134033,55.867210388183594,-5.787270545959473,-19.527482986450195]],"biases":[12.103825569152832,3.5236072540283203,28.441532135009766,-3.409836769104004,-52.03351974487305]},{"weights":[[1.8586817979812622,3.02485728263855,2.7116098403930664,-42.26865005493164,-29.415546417236328],[-1.4342066049575806,-3.221336603164673,52.63123321533203,-3.162996530532837,7.057700157165527],[-38.16460418701172,-2.0245308876037598,-5.610202789306641,-3.9737939834594727,0.9693151712417603],[-0.2445492297410965,-2.103630542755127,4.274647235870361,4.592037200927734,-4.304631233215332]],"biases":[-3.8609912395477295,-52.880218505859375,4.620007038116455,-5.129819869995117]}],"inputLookup":{"0":0,"1":8,"2":6,"3":7,"4":1,"5":2,"6":3,"7":4,"8":5},"inputLookupLength":9,"outputLookup":{"2":3,"4":0,"6":1,"8":2},"outputLookupLength":4,"options":{"inputSize":9,"outputSize":5,"binaryThresh":0.5,"hiddenLayers":[9,5,5],"activation":"sigmoid","leakyReluAlpha":0.01},"trainOpts":{"activation":"sigmoid","iterations":20000,"errorThresh":0.005,"log":true,"logPeriod":2000,"leakyReluAlpha":0.01,"learningRate":0.3,"momentum":0.1,"callbackPeriod":10,"timeout":"Infinity","beta1":0.9,"beta2":0.999,"epsilon":1e-8}}