{"type":"NeuralNetwork","sizes":[9,9,5,5,4],"layers":[{"weights":[],"biases":[]},{"weights":[[66.12767791748047,13.907001495361328,-45.04930877685547,-38.24238967895508,-25.50486183166504,38.774940490722656,-12.635873794555664,-21.302560806274414,-5.611752510070801],[8.35464859008789,-17.085243225097656,-5.987913608551025,156.0165557861328,27.35092544555664,-130.44284057617188,-90.70353698730469,-6.336990833282471,-5.9376068115234375],[41.45860290527344,-48.958251953125,55.35193634033203,98.55828857421875,-14.014789581298828,33.2783317565918,-5.159613132476807,-5.004965305328369,-16.06273078918457],[4.939564228057861,155.14515686035156,2.507711172103882,-150.31869506835938,8.44343376159668,-95.16173553466797,75.11653900146484,-1.256239891052246,6.966353416442871],[-4.325922966003418,-41.071197509765625,-61.74053955078125,22.130746841430664,1.9375208616256714,95.43215942382812,-90.04517364501953,-25.477815628051758,0.8372827768325806],[-1.7530874013900757,-131.42462158203125,13.24019718170166,10.271053314208984,13.462408065795898,0.3040628433227539,159.79689025878906,1.5980461835861206,13.351473808288574],[2.041821002960205,-49.38137435913086,4.079657077789307,-96.41015625,27.410364151000977,140.85946655273438,-43.93515396118164,-34.183616638183594,16.05824851989746],[-78.88102722167969,-79.64339447021484,1.6777849197387695,-26.075712203979492,12.471077919006348,-46.76530838012695,94.7910385131836,31.159833908081055,-6.717015266418457],[24.974990844726562,-102.66871643066406,-17.604745864868164,-78.90370178222656,-17.25174903869629,-19.38714027404785,143.41787719726562,-14.759323120117188,-7.837467193603516]],"biases":[-61.771549224853516,-4.644680023193359,37.67713165283203,-5.174800395965576,-5.1429219245910645,12.343901634216309,-31.546844482421875,-39.33072280883789,-14.620376586914062]},{"weights":[[16.015695571899414,35.89550018310547,43.918006896972656,-53.6655158996582,56.03310775756836,40.941368103027344,8.016672134399414,-65.03270721435547,-41.771873474121094],[-4.320995807647705,-34.98662185668945,-34.979312896728516,-1.7287757396697998,2.2554666996002197,54.12342834472656,-24.289566040039062,50.829837799072266,55.68988037109375],[-40.21207809448242,17.17809295654297,-40.46332931518555,-20.462106704711914,17.56481170654297,4.6405768394470215,11.570243835449219,-23.997314453125,0.7940074801445007],[7.462055206298828,-9.689071655273438,-27.239959716796875,-30.28072738647461,-8.36602783203125,-3.01701283454895,63.55570983886719,69.77073669433594,19.709341049194336],[41.04322814941406,-56.177040100097656,-53.46365737915039,-29.37726593017578,20.957548141479492,32.22822952270508,49.338340759277344,-13.772393226623535,-43.58072280883789]],"biases":[-30.318830490112305,-8.009496688842773,27.59547233581543,-7.800548076629639,7.0483832359313965]},{"weights":[[-39.015628814697266,-6.9079270362854,-4.0496063232421875,-65.19602966308594,-29.40729522705078],[-58.742591857910156,-42.79109191894531,22.4356746673584,-7.708462715148926,28.396093368530273],[-25.611740112304688,-15.415905952453613,31.176042556762695,-39.06041717529297,-44.46504592895508],[-2.643315553665161,8.991592407226562,-4.222042560577393,5.48410177230835,-13.49959945678711],[8.63192081451416,-2.712455987930298,63.16508483886719,-3.522658348083496,5.902768135070801]],"biases":[40.22498321533203,0.17527766525745392,45.55405807495117,-11.53110122680664,-73.36066436767578]},{"weights":[[1.6322267055511475,6.8737897872924805,0.5624197721481323,-57.86458969116211,-53.79153823852539],[-1.6329923868179321,-4.925498962402344,66.3708267211914,-49.528236389160156,16.813814163208008],[-55.171260833740234,-35.1085319519043,-1.069139003753662,-4.8190741539001465,6.497843265533447],[0.009942968375980854,-30.645549774169922,-0.351753830909729,59.41161346435547,-17.809032440185547]],"biases":[-1.8309996128082275,-67.25279998779297,0.2687039077281952,-0.7268111705780029]}],"inputLookup":{"0":0,"1":8,"2":6,"3":7,"4":1,"5":2,"6":3,"7":4,"8":5},"inputLookupLength":9,"outputLookup":{"2":3,"4":0,"6":1,"8":2},"outputLookupLength":4,"options":{"inputSize":9,"outputSize":5,"binaryThresh":0.5,"hiddenLayers":[9,5,5],"activation":"sigmoid","leakyReluAlpha":0.01},"trainOpts":{"activation":"sigmoid","iterations":20000,"errorThresh":0.005,"log":true,"logPeriod":2000,"leakyReluAlpha":0.01,"learningRate":0.3,"momentum":0.1,"callbackPeriod":10,"timeout":"Infinity","beta1":0.9,"beta2":0.999,"epsilon":1e-8}}