{"type":"NeuralNetwork","sizes":[9,9,5,5,4],"layers":[{"weights":[],"biases":[]},{"weights":[[-8.63418197631836,81.70974731445312,-28.665102005004883,-36.1463508605957,-22.052757263183594,-41.963470458984375,-106.10774993896484,-20.110612869262695,-5.93563175201416],[8.071946144104004,-154.09535217285156,2.475675582885742,181.62216186523438,-37.53183364868164,-48.744590759277344,-22.252941131591797,-0.9732553362846375,-20.060518264770508],[47.632266998291016,-31.792381286621094,-14.307835578918457,-60.95855712890625,-16.00973892211914,-96.2445297241211,176.42156982421875,-2.4493699073791504,-69.75128936767578],[32.17535400390625,188.3701629638672,-8.230428695678711,-154.2542724609375,17.436368942260742,-101.80213165283203,-98.22636413574219,7.992461681365967,-5.016295909881592],[23.746604919433594,-9.926033020019531,-49.951759338378906,-135.70521545410156,-53.19111251831055,97.13187408447266,158.39602661132812,6.871194839477539,5.452358245849609],[28.975793838500977,-69.07209777832031,-20.298349380493164,-69.90789794921875,-12.900313377380371,142.7536163330078,-100.23838806152344,-8.509886741638184,16.129735946655273],[-43.291358947753906,-26.111082077026367,-39.6310920715332,-55.60143280029297,-17.684555053710938,97.26931762695312,-23.269699096679688,9.884003639221191,4.403815746307373],[27.07436752319336,148.50575256347656,8.94408893585205,33.107627868652344,-33.7292366027832,-2.510899066925049,-165.712890625,23.825511932373047,6.967874526977539],[-6.746514797210693,-101.18677520751953,-38.997962951660156,117.08473205566406,47.57136154174805,28.686729431152344,-88.55587768554688,-52.70561218261719,-0.07281794399023056]],"biases":[1.6705455780029297,-31.106552124023438,-76.55670166015625,-35.42135238647461,-19.39105224609375,-25.122116088867188,-48.06097412109375,-18.40904426574707,-60.09111785888672]},{"weights":[[-30.30018424987793,-7.236264228820801,21.609539031982422,-26.50450325012207,38.419437408447266,36.29176330566406,36.19969940185547,-41.9716682434082,10.325737953186035],[-30.355987548828125,-32.762325286865234,6.038341045379639,-27.372028350830078,39.489044189453125,47.493568420410156,-27.776273727416992,-43.12876510620117,-30.75012969970703],[12.996116638183594,32.457969665527344,-37.860538482666016,-65.92212677001953,-31.204011917114258,23.488319396972656,11.144733428955078,6.639242172241211,55.51308059692383],[-23.878623962402344,49.396484375,-22.055618286132812,-31.680681228637695,4.672946929931641,64.56156921386719,-10.287474632263184,4.107993125915527,23.583005905151367],[-8.860233306884766,-35.32115936279297,-50.078189849853516,-32.83939743041992,15.988693237304688,35.37434387207031,26.072341918945312,-30.044715881347656,33.23651885986328]],"biases":[-35.81645965576172,17.46725845336914,4.351489067077637,-4.591404914855957,-5.273414611816406]},{"weights":[[-40.64810562133789,-17.891498565673828,-30.445436477661133,8.154375076293945,-16.052644729614258],[-34.956214904785156,-15.796926498413086,1.5684393644332886,-13.076279640197754,0.24579408764839172],[1.8226447105407715,-14.209006309509277,26.57147789001465,3.5194742679595947,-19.590652465820312],[-2.293114423751831,-18.566740036010742,-30.34524154663086,-11.867425918579102,-10.817937850952148],[13.720987319946289,-10.635396003723145,-51.06748580932617,-15.724308967590332,-38.3260498046875]],"biases":[34.41361618041992,9.602972030639648,-8.219697952270508,43.64555358886719,9.793682098388672]},{"weights":[[25.355073928833008,1.8339873552322388,-1.43638014793396,34.6228141784668,0.5151771903038025],[33.93416213989258,-1.1767566204071045,2.8517186641693115,-33.09132385253906,0.9532467126846313],[1.0665943622589111,5.129610061645508,-5.454071044921875,-6.754841327667236,-40.76093673706055],[-2.885693073272705,-57.74504089355469,3.4394736289978027,6.0374674797058105,3.661851644515991]],"biases":[-60.456695556640625,-3.7315378189086914,4.390523433685303,-3.937588930130005]}],"inputLookup":{"0":0,"1":8,"2":6,"3":7,"4":1,"5":2,"6":3,"7":4,"8":5},"inputLookupLength":9,"outputLookup":{"2":3,"4":0,"6":1,"8":2},"outputLookupLength":4,"options":{"inputSize":9,"outputSize":5,"binaryThresh":0.5,"hiddenLayers":[9,5,5],"activation":"sigmoid","leakyReluAlpha":0.01},"trainOpts":{"activation":"sigmoid","iterations":20000,"errorThresh":0.005,"log":true,"logPeriod":2000,"leakyReluAlpha":0.01,"learningRate":0.3,"momentum":0.1,"callbackPeriod":10,"timeout":"Infinity","beta1":0.9,"beta2":0.999,"epsilon":1e-8}}