{"type":"NeuralNetwork","sizes":[9,9,5,5,4],"layers":[{"weights":[],"biases":[]},{"weights":[[-6.643700122833252,62.08060073852539,-13.240865707397461,14.05427360534668,-22.99056053161621,-27.228145599365234,-66.36243438720703,14.929828643798828,-20.119604110717773],[2.427091360092163,-84.05513000488281,-4.754858493804932,92.4416275024414,22.930986404418945,-20.344972610473633,-82.28294372558594,15.535149574279785,-1.5817160606384277],[14.903804779052734,-35.78015899658203,-26.91655158996582,-38.464908599853516,-15.276101112365723,-95.93958282470703,105.94880676269531,0.018055126070976257,-2.5795435905456543],[54.18703842163086,150.9544219970703,4.641788482666016,-70.97846984863281,-14.08056640625,-43.7039794921875,-85.3030014038086,21.118619918823242,-9.782958030700684],[5.967928409576416,-21.247997283935547,-2.152186632156372,-89.74714660644531,49.28805160522461,107.32539367675781,11.372452735900879,32.54411697387695,8.249210357666016],[36.139774322509766,-64.85108184814453,-1.8216973543167114,-63.39213180541992,-10.571555137634277,83.09877014160156,-63.99748229980469,-4.356189727783203,2.7485272884368896],[-21.41279411315918,-30.56002426147461,-42.400177001953125,-40.177886962890625,25.0344295501709,85.99539184570312,-7.129846096038818,21.664567947387695,27.971790313720703],[-33.92718505859375,97.05628204345703,-19.673402786254883,48.388248443603516,-51.54336929321289,-30.61503028869629,-52.078521728515625,-25.295387268066406,16.32583236694336],[-14.119034767150879,-67.39146423339844,14.786006927490234,92.19805145263672,28.440858840942383,34.250244140625,-64.85835266113281,-23.712034225463867,1.5976840257644653]],"biases":[-3.6123788356781006,8.238021850585938,7.7390522956848145,-20.771175384521484,-13.403566360473633,5.830873012542725,-41.12599182128906,13.262587547302246,-59.99052047729492]},{"weights":[[-34.946250915527344,-36.0960693359375,19.937904357910156,-39.31298065185547,18.310457229614258,13.831233024597168,34.37141036987305,-2.7266526222229004,-9.581469535827637],[-17.36034393310547,6.919977188110352,12.898640632629395,-6.372190475463867,8.603482246398926,50.45381164550781,-34.4409065246582,-27.079782485961914,-36.65840530395508],[11.810181617736816,15.12253475189209,-34.865177154541016,-47.663394927978516,-27.28083038330078,-10.835212707519531,-13.433380126953125,-9.410833358764648,35.881961822509766],[-20.1824893951416,42.88562774658203,-25.512693405151367,-17.942886352539062,-4.24918794631958,47.748050689697266,-10.230445861816406,33.39325714111328,17.5093994140625],[-14.75223159790039,-21.335899353027344,-45.42439270019531,-20.90937614440918,22.75061798095703,13.186511039733887,13.209029197692871,-2.2950937747955322,25.344985961914062]],"biases":[-6.097268104553223,6.139163494110107,9.45909595489502,-10.211612701416016,-4.2252349853515625]},{"weights":[[-39.069454193115234,-4.732741355895996,-8.677871704101562,-1.445400595664978,-2.891964912414551],[-31.816741943359375,-27.64504623413086,12.172029495239258,-2.599513530731201,-23.09872055053711],[-8.933280944824219,-10.780224800109863,25.193708419799805,-2.3094608783721924,-0.30366164445877075],[7.016273498535156,-8.814300537109375,-25.055225372314453,-12.952305793762207,-18.496929168701172],[19.62502670288086,-17.46037483215332,-48.4620475769043,-13.949289321899414,-42.705501556396484]],"biases":[24.035470962524414,12.844447135925293,-12.070660591125488,27.62643814086914,15.864116668701172]},{"weights":[[14.594974517822266,-8.177608489990234,5.920793533325195,33.89461898803711,11.026728630065918],[0.9170677661895752,5.558135986328125,3.1183249950408936,2.2346770763397217,-7.500970363616943],[-0.8877087235450745,-2.9984006881713867,-4.850268363952637,-4.668264865875244,-49.933746337890625],[0.11218201369047165,-45.0628547668457,7.461950778961182,6.843743801116943,5.224414825439453]],"biases":[-50.16203308105469,-4.124791622161865,4.063834190368652,-7.737398147583008]}],"inputLookup":{"0":0,"1":8,"2":6,"3":7,"4":1,"5":2,"6":3,"7":4,"8":5},"inputLookupLength":9,"outputLookup":{"2":3,"4":0,"6":1,"8":2},"outputLookupLength":4,"options":{"inputSize":9,"outputSize":5,"binaryThresh":0.5,"hiddenLayers":[9,5,5],"activation":"sigmoid","leakyReluAlpha":0.01},"trainOpts":{"activation":"sigmoid","iterations":20000,"errorThresh":0.005,"log":true,"logPeriod":2000,"leakyReluAlpha":0.01,"learningRate":0.3,"momentum":0.1,"callbackPeriod":10,"timeout":"Infinity","beta1":0.9,"beta2":0.999,"epsilon":1e-8}}