{"type":"NeuralNetwork","sizes":[9,9,5,5,4],"layers":[{"weights":[],"biases":[]},{"weights":[[-10.994942665100098,-133.26365661621094,-17.358774185180664,293.1128234863281,-13.486685752868652,-61.47949981689453,-95.91333770751953,2.8765480518341064,-12.444367408752441],[-14.158048629760742,-104.19404602050781,-3.5387704372406006,-132.8267059326172,-19.866687774658203,186.0357666015625,115.0783462524414,-8.577997207641602,-11.830974578857422],[-20.240568161010742,82.88761138916016,10.70569133758545,67.06181335449219,-8.321039199829102,-217.15505981445312,130.97714233398438,2.1088690757751465,-8.214740753173828],[-15.717218399047852,-263.854248046875,8.226134300231934,80.58152770996094,11.607434272766113,109.82356262207031,147.15576171875,-22.789833068847656,0.553272545337677],[-38.07783889770508,29.969940185546875,-19.36556625366211,35.91008377075195,14.746164321899414,-0.887755811214447,-11.889995574951172,82.21748352050781,-6.230085849761963],[-17.71296501159668,-218.377197265625,-15.429657936096191,151.39939880371094,-13.448142051696777,129.56605529785156,-131.66908264160156,-23.935651779174805,-29.649843215942383],[19.71175193786621,-103.49789428710938,-9.949058532714844,-135.91107177734375,5.552462577819824,-95.44023132324219,228.2395477294922,12.477951049804688,-0.6434623599052429],[-53.40821075439453,-101.37692260742188,-53.25187683105469,49.618534088134766,-0.9693776965141296,-104.91706085205078,67.46438598632812,15.052417755126953,-4.1932454109191895],[-13.922130584716797,82.7987060546875,-1.5433802604675293,-161.71090698242188,-9.99958610534668,73.0956039428711,76.38026428222656,40.59860610961914,-8.978764533996582]],"biases":[-15.442863464355469,-22.557283401489258,25.476871490478516,34.24686813354492,46.50230026245117,-25.241788864135742,-26.972227096557617,-14.480098724365234,38.63530731201172]},{"weights":[[-14.744100570678711,41.2519416809082,-55.61600875854492,22.62807846069336,-39.28931427001953,16.01909828186035,-55.110050201416016,-20.932750701904297,20.508865356445312],[-17.925695419311523,8.643092155456543,8.737592697143555,56.73586654663086,-42.07877731323242,-8.094088554382324,55.566646575927734,20.6992244720459,15.289374351501465],[30.69471549987793,25.37968635559082,-30.773801803588867,29.378360748291016,5.877919673919678,42.408321380615234,-72.27490997314453,-3.061361789703369,-33.25408172607422],[42.17247772216797,-73.37931060791016,15.29322624206543,5.584228992462158,-21.45088768005371,32.35490036010742,-12.523638725280762,14.34898567199707,-52.71092224121094],[7.886931896209717,4.396440029144287,-48.961246490478516,49.8370475769043,-19.629472732543945,-1.4117488861083984,-55.61808395385742,-40.03311538696289,52.39542770385742]],"biases":[8.164274215698242,-38.44608688354492,-11.132165908813477,23.082571029663086,-25.122913360595703]},{"weights":[[12.405888557434082,29.01825523376465,23.458507537841797,31.016529083251953,-29.254573822021484],[-17.82217788696289,-4.044135570526123,-30.077943801879883,11.198967933654785,-9.901358604431152],[16.68894386291504,-23.93659782409668,-42.785072326660156,0.023907098919153214,-47.75532913208008],[-13.400415420532227,-43.26226806640625,13.824002265930176,31.329631805419922,-15.012702941894531],[-28.084571838378906,11.495656967163086,31.113513946533203,-5.51747465133667,-3.0076351165771484]],"biases":[-1.231343388557434,23.323062896728516,23.656463623046875,-2.3413844108581543,-8.777406692504883]},{"weights":[[-20.604167938232422,1.8396040201187134,-1.5724973678588867,22.766984939575195,2.601681709289551],[1.6734706163406372,-2.424868583679199,-64.5997543334961,-3.5269196033477783,-2.3163959980010986],[-5.41916561126709,0.03718644753098488,6.313704013824463,-0.130837544798851,-1.2028427124023438],[2.233813762664795,6.0097832679748535,-1.3209701776504517,-32.13779067993164,6.288322448730469]],"biases":[-2.731909990310669,1.305227518081665,-1.564281702041626,-7.010529518127441]}],"inputLookup":{"0":0,"1":8,"2":6,"3":7,"4":1,"5":2,"6":3,"7":4,"8":5},"inputLookupLength":9,"outputLookup":{"2":3,"4":2,"6":0,"8":1},"outputLookupLength":4,"options":{"inputSize":9,"outputSize":5,"binaryThresh":0.5,"hiddenLayers":[9,5,5],"activation":"sigmoid","leakyReluAlpha":0.01},"trainOpts":{"activation":"sigmoid","iterations":20000,"errorThresh":0.005,"log":true,"logPeriod":2000,"leakyReluAlpha":0.01,"learningRate":0.3,"momentum":0.1,"callbackPeriod":10,"timeout":"Infinity","beta1":0.9,"beta2":0.999,"epsilon":1e-8}}