{"type":"NeuralNetwork","sizes":[9,9,5,5,4],"layers":[{"weights":[],"biases":[]},{"weights":[[3.8638246059417725,-133.09840393066406,-9.694294929504395,165.5723114013672,11.830924034118652,-23.938465118408203,-51.163814544677734,-10.65716552734375,-6.00324821472168],[-21.177392959594727,-104.72193908691406,8.548846244812012,-91.27095794677734,-28.348421096801758,100.15544128417969,42.38014221191406,0.680234968662262,19.94572639465332],[2.9657535552978516,32.626312255859375,24.21508026123047,45.8408203125,-9.73818588256836,-133.03158569335938,74.67207336425781,-13.68498420715332,-4.012153625488281],[21.927398681640625,-104.04246520996094,-1.6487168073654175,-31.676477432250977,19.86510467529297,101.99320983886719,15.215590476989746,0.2767723500728607,9.92828369140625],[-16.87449836730957,14.837876319885254,-34.64798355102539,25.21098518371582,24.18216323852539,-22.692121505737305,2.3608829975128174,84.4296646118164,-25.627643585205078],[22.38743782043457,-98.90928649902344,21.47867202758789,109.29873657226562,-22.98419189453125,108.14645385742188,-60.489139556884766,-23.318666458129883,-26.602283477783203],[-1.1402024030685425,-57.0656623840332,-13.53356647491455,-66.62376403808594,3.3487207889556885,-42.24494171142578,122.75357055664062,23.901880264282227,11.098800659179688],[4.844320297241211,-78.1391830444336,-38.4654541015625,44.396366119384766,21.93595314025879,-60.37559509277344,60.177528381347656,14.748846054077148,-8.849157333374023],[-0.6187947988510132,42.85456466674805,-2.329503059387207,-58.199527740478516,-9.175496101379395,37.746646881103516,56.52927017211914,-3.148529291152954,-11.759035110473633]],"biases":[-7.260275363922119,30.254772186279297,26.88823890686035,-15.69477367401123,21.831811904907227,-32.647701263427734,-15.393838882446289,-6.080578327178955,16.755022048950195]},{"weights":[[-9.465351104736328,31.008974075317383,-43.3958854675293,28.58024024963379,-47.156497955322266,5.455777645111084,-34.63093948364258,13.532845497131348,16.999433517456055],[1.8482298851013184,15.030059814453125,-5.1035661697387695,37.485870361328125,-43.12089920043945,-25.842988967895508,50.13277816772461,26.381702423095703,20.948570251464844],[31.394773483276367,40.58185577392578,-31.0439453125,3.8591949939727783,16.4337215423584,26.980859756469727,-42.908870697021484,11.107702255249023,-17.08081817626953],[42.32441711425781,-32.76353454589844,7.930656909942627,-29.5577335357666,-11.520444869995117,-0.4520553946495056,-8.535160064697266,3.4352428913116455,-31.544387817382812],[-18.77387046813965,22.728429794311523,-31.95828628540039,40.762821197509766,-15.708992958068848,36.043365478515625,-42.17612838745117,-23.934356689453125,31.999387741088867]],"biases":[-0.1719789355993271,-26.64085578918457,-8.398038864135742,35.42950439453125,-25.988319396972656]},{"weights":[[-1.4090499877929688,6.414201259613037,2.8012855052948,21.12874412536621,-8.215598106384277],[-3.518526315689087,-7.774782657623291,-26.23391342163086,10.186001777648926,-20.46916961669922],[16.134891510009766,-17.234493255615234,-35.08919906616211,5.808579444885254,-23.969100952148438],[-9.876931190490723,-30.471710205078125,21.77873420715332,23.20680809020996,1.461106777191162],[-23.2335147857666,10.661320686340332,0.1159481331706047,-20.184234619140625,-9.009881019592285]],"biases":[-1.660598635673523,29.15656089782715,-1.445330262184143,-19.496919631958008,9.555124282836914]},{"weights":[[-2.022773265838623,6.641428470611572,-6.539876937866211,7.190995216369629,-2.917203903198242],[-3.57633900642395,-3.7679803371429443,-61.521610260009766,-4.060868740081787,-3.6255314350128174],[-1.702141284942627,0.4210382401943207,21.454988479614258,-6.248299598693848,13.119804382324219],[3.572436571121216,2.2969717979431152,-11.264152526855469,-27.353092193603516,2.317193031311035]],"biases":[-5.008639335632324,6.415668487548828,-14.476057052612305,-5.615164756774902]}],"inputLookup":{"0":0,"1":8,"2":6,"3":7,"4":1,"5":2,"6":3,"7":4,"8":5},"inputLookupLength":9,"outputLookup":{"2":3,"4":2,"6":0,"8":1},"outputLookupLength":4,"options":{"inputSize":9,"outputSize":5,"binaryThresh":0.5,"hiddenLayers":[9,5,5],"activation":"sigmoid","leakyReluAlpha":0.01},"trainOpts":{"activation":"sigmoid","iterations":20000,"errorThresh":0.005,"log":true,"logPeriod":2000,"leakyReluAlpha":0.01,"learningRate":0.3,"momentum":0.1,"callbackPeriod":10,"timeout":"Infinity","beta1":0.9,"beta2":0.999,"epsilon":1e-8}}