{"type":"NeuralNetwork","sizes":[9,9,5,5,4],"layers":[{"weights":[],"biases":[]},{"weights":[[3.250537633895874,-40.92885971069336,5.6148271560668945,-5.544055461883545,3.2468197345733643,-42.34843826293945,55.46320724487305,4.831018924713135,-7.791489601135254],[-3.771860122680664,96.74920654296875,0.4156325161457062,-103.1602554321289,5.136566162109375,-73.39997863769531,75.63745880126953,-14.714487075805664,-0.9145705699920654],[-8.00380802154541,39.12940216064453,-7.028192520141602,75.53572082519531,-52.366825103759766,-52.17752456665039,-40.260902404785156,17.3673038482666,7.806568145751953],[-17.677175521850586,20.53244972229004,14.334687232971191,79.29298400878906,6.429751396179199,-93.02780151367188,82.97273254394531,7.983187675476074,4.560375213623047],[12.655679702758789,-33.237892150878906,-16.26422691345215,33.55801773071289,24.46274757385254,-50.13726043701172,34.486873626708984,-17.463058471679688,-56.01051712036133],[-22.874189376831055,-59.86381149291992,-32.57577133178711,-42.239036560058594,-29.257007598876953,-56.19906997680664,43.5372200012207,23.806188583374023,-9.475807189941406],[-26.241872787475586,-110.01941680908203,-5.799606800079346,44.04609680175781,68.93212127685547,-2.753000497817993,111.2840576171875,-33.5111083984375,-12.261299133300781],[21.912466049194336,52.0213508605957,0.28017765283584595,116.31600189208984,-1.7450772523880005,-89.38465881347656,-98.91490936279297,3.61783504486084,1.172006607055664],[-2.987926721572876,-40.81803894042969,-2.986485481262207,-18.9268856048584,-15.60244369506836,57.309913635253906,60.720497131347656,-2.05544114112854,28.985050201416016]],"biases":[-5.6497907638549805,5.952319145202637,3.571139097213745,-10.028605461120605,3.7458059787750244,13.078446388244629,25.31764030456543,-9.027901649475098,-31.663606643676758]},{"weights":[[30.709796905517578,11.16334056854248,-17.95659828186035,-25.876834869384766,-30.330629348754883,4.235984802246094,-6.1681413650512695,-8.221964836120605,17.71810531616211],[13.769458770751953,39.944908142089844,-0.9816594123840332,32.38170623779297,27.80389404296875,26.32951545715332,-12.175413131713867,-53.778114318847656,-14.183991432189941],[5.1601104736328125,37.51940155029297,7.879647254943848,17.292926788330078,10.405088424682617,-25.433961868286133,-50.849220275878906,16.60694122314453,-24.392778396606445],[-27.95525360107422,15.089777946472168,44.91072082519531,0.2683072090148926,7.448963642120361,-27.53087043762207,-16.493762969970703,28.363229751586914,-28.258541107177734],[7.982288837432861,4.480951309204102,-0.19963698089122772,-42.613616943359375,-11.910186767578125,-21.047996520996094,-26.150196075439453,-12.386175155639648,-30.184185028076172]],"biases":[14.87012004852295,-12.0858736038208,-8.870340347290039,9.295448303222656,62.268890380859375]},{"weights":[[-26.598356246948242,-17.884963989257812,-15.647255897521973,22.442506790161133,-10.584639549255371],[-12.730575561523438,-25.088924407958984,-13.295472145080566,10.6470947265625,-23.330177307128906],[28.934667587280273,7.364144325256348,7.630039691925049,-11.342671394348145,-10.13693904876709],[-19.98626708984375,-13.024145126342773,-31.690988540649414,-21.24363136291504,-11.127355575561523],[1.2919126749038696,-11.307774543762207,-15.424490928649902,-9.704360008239746,6.800553321838379]],"biases":[1.1822528839111328,-7.290375232696533,-20.34066390991211,69.16285705566406,7.817498683929443]},{"weights":[[-1.1055505275726318,6.02020788192749,-66.99186706542969,2.885470151901245,3.3703935146331787],[2.818497896194458,-6.009716033935547,-9.695515632629395,-9.320329666137695,-54.438941955566406],[-19.118749618530273,-2.6666672229766846,-17.349937438964844,65.79617309570312,18.168025970458984],[-54.736331939697266,8.522381782531738,4.857293128967285,4.492774963378906,-4.599010467529297]],"biases":[-3.9589407444000244,8.550909042358398,-66.88873291015625,-5.347546577453613]}],"inputLookup":{"0":0,"1":8,"2":6,"3":7,"4":1,"5":2,"6":3,"7":4,"8":5},"inputLookupLength":9,"outputLookup":{"2":3,"4":1,"6":0,"8":2},"outputLookupLength":4,"options":{"inputSize":9,"outputSize":5,"binaryThresh":0.5,"hiddenLayers":[9,5,5],"activation":"sigmoid","leakyReluAlpha":0.01},"trainOpts":{"activation":"sigmoid","iterations":20000,"errorThresh":0.005,"log":true,"logPeriod":2000,"leakyReluAlpha":0.01,"learningRate":0.3,"momentum":0.1,"callbackPeriod":10,"timeout":"Infinity","beta1":0.9,"beta2":0.999,"epsilon":1e-8}}