{"type":"NeuralNetwork","sizes":[9,9,5,5,4],"layers":[{"weights":[],"biases":[]},{"weights":[[29.72222137451172,-122.50533294677734,-0.8303510546684265,-79.3095703125,-0.6778379082679749,-11.220789909362793,139.31640625,2.388183116912842,-1.7808867692947388],[19.182985305786133,149.53033447265625,-2.863424777984619,-198.17344665527344,16.359813690185547,-133.8234100341797,128.23068237304688,0.14089719951152802,16.087221145629883],[-13.113004684448242,36.34593200683594,-40.30751037597656,99.87205505371094,-50.41123962402344,-70.12293243408203,-16.49269676208496,32.96595001220703,18.10162353515625],[-23.262693405151367,52.18534469604492,-1.3084505796432495,69.70448303222656,10.057969093322754,-201.1358642578125,156.9517822265625,-10.68576717376709,-6.801976203918457],[2.4002292156219482,-103.35905456542969,-4.083123207092285,120.68489837646484,11.558951377868652,-75.29034423828125,32.52975845336914,-1.4520436525344849,0.7350066900253296],[28.26310157775879,-93.84968566894531,-31.07847785949707,-58.55544662475586,-21.939970016479492,-63.110103607177734,40.06002426147461,25.728303909301758,7.6538848876953125],[-24.870304107666016,-146.48385620117188,-24.860179901123047,114.55892181396484,71.53927612304688,70.69280242919922,96.65830993652344,-34.63330078125,31.13735008239746],[20.744094848632812,120.31608581542969,0.3219168186187744,175.93133544921875,18.227052688598633,-203.6511993408203,-151.36146545410156,-1.1127099990844727,9.025136947631836],[-8.408352851867676,-76.52115631103516,40.04512023925781,10.990368843078613,-53.633453369140625,24.76484489440918,109.05685424804688,-39.12702560424805,3.017725944519043]],"biases":[-7.286660671234131,-10.248208045959473,51.66511154174805,16.594694137573242,-6.005452632904053,26.477203369140625,38.99940490722656,-16.718069076538086,-35.358150482177734]},{"weights":[[40.9647102355957,29.708852767944336,-11.237119674682617,-58.674137115478516,-5.653212547302246,16.24722671508789,18.868274688720703,-36.44113540649414,32.71371841430664],[13.13383960723877,64.15998840332031,-7.149017810821533,42.36252212524414,0.5313047766685486,18.51909637451172,-32.05943298339844,-25.0458927154541,16.055803298950195],[-22.230342864990234,49.60771942138672,10.271368980407715,38.34556579589844,-20.89799690246582,-43.122074127197266,-63.01676559448242,38.432289123535156,-18.788721084594727],[-30.413097381591797,3.072986602783203,34.749107360839844,9.699886322021484,27.935070037841797,-20.130672454833984,-37.76545333862305,66.19493103027344,-31.541601181030273],[-16.959684371948242,16.75728416442871,-20.227813720703125,-61.183326721191406,-17.06907081604004,-3.7566943168640137,-3.4335289001464844,3.8791821002960205,-19.42157554626465]],"biases":[20.73653793334961,-35.3870735168457,-17.89016342163086,-14.281693458557129,80.4598617553711]},{"weights":[[-9.442042350769043,-34.80575942993164,1.3076449632644653,14.131743431091309,-10.509291648864746],[-16.11294174194336,-22.49705696105957,-16.65488624572754,7.489512920379639,-23.50434112548828],[21.141958236694336,11.36673641204834,9.388130187988281,-17.275922775268555,6.731581211090088],[-21.665781021118164,2.660309076309204,-46.63634490966797,-18.677446365356445,-20.19306755065918],[17.495315551757812,-6.820148944854736,-14.611808776855469,-17.475940704345703,19.779407501220703]],"biases":[-5.0467400550842285,-5.4298553466796875,-30.036523818969727,65.98712158203125,-19.984100341796875]},{"weights":[[4.830050468444824,0.7161687612533569,-72.5953598022461,3.6396939754486084,1.606523871421814],[-3.8334507942199707,-2.856480598449707,-3.9491333961486816,-4.845235824584961,-68.57041931152344],[-1.3310976028442383,-22.57240104675293,-4.944095134735107,89.15026092529297,5.232706546783447],[-101.5455322265625,4.5982208251953125,5.698329925537109,5.102116584777832,-5.577635288238525]],"biases":[-5.119826793670654,4.044471740722656,-89.99366760253906,-5.75236701965332]}],"inputLookup":{"0":0,"1":8,"2":6,"3":7,"4":1,"5":2,"6":3,"7":4,"8":5},"inputLookupLength":9,"outputLookup":{"2":3,"4":1,"6":0,"8":2},"outputLookupLength":4,"options":{"inputSize":9,"outputSize":5,"binaryThresh":0.5,"hiddenLayers":[9,5,5],"activation":"sigmoid","leakyReluAlpha":0.01},"trainOpts":{"activation":"sigmoid","iterations":20000,"errorThresh":0.005,"log":true,"logPeriod":2000,"leakyReluAlpha":0.01,"learningRate":0.3,"momentum":0.1,"callbackPeriod":10,"timeout":"Infinity","beta1":0.9,"beta2":0.999,"epsilon":1e-8}}