{"type":"NeuralNetwork","sizes":[9,9,5,5,4],"layers":[{"weights":[],"biases":[]},{"weights":[[-50.235321044921875,-41.144996643066406,10.785384178161621,58.994503021240234,7.202933311462402,-58.9782829284668,53.93891906738281,-17.95107078552246,3.7392356395721436],[18.725074768066406,-72.35456085205078,6.682701587677002,-41.77547836303711,7.010089874267578,113.90265655517578,-46.97843933105469,10.339081764221191,-21.63040542602539],[19.50670623779297,24.057825088500977,-4.7521281242370605,31.987384796142578,6.680685520172119,-58.29328155517578,-40.29623031616211,4.295254230499268,13.751770973205566],[5.330596446990967,-63.290069580078125,-23.76056671142578,60.87563705444336,57.76836013793945,-16.585290908813477,-36.331974029541016,24.689802169799805,-12.485790252685547],[1.8103294372558594,-83.7912368774414,-2.573624849319458,-27.162799835205078,-29.494131088256836,8.14414119720459,59.919864654541016,-13.364522933959961,-1.871087670326233],[-58.81526565551758,63.84635543823242,52.3977165222168,-2.9826037883758545,2.9160611629486084,-34.87194061279297,-46.4744987487793,-9.080035209655762,-31.25624656677246],[-6.315390586853027,7.025069713592529,-13.074901580810547,-30.802000045776367,18.080089569091797,-74.44927978515625,83.3638687133789,19.094064712524414,-13.334988594055176],[3.559562921524048,-87.45008087158203,1.3571547269821167,94.71685791015625,-13.787283897399902,-14.414494514465332,-43.56657791137695,-2.779939889907837,-10.167987823486328],[39.69520950317383,47.44672393798828,-40.22480773925781,36.86455154418945,-11.899100303649902,-30.03402328491211,-28.924806594848633,-1.758407711982727,-39.832923889160156]],"biases":[-19.16250991821289,-0.09685714542865753,-4.981225967407227,-0.12914201617240906,17.880746841430664,-10.126472473144531,10.788148880004883,2.2791450023651123,14.571331977844238]},{"weights":[[-10.770830154418945,51.63568115234375,20.343708038330078,24.58007049560547,1.4587626457214355,-30.612594604492188,-24.00506591796875,41.74844741821289,-18.27350616455078],[-23.926776885986328,21.218421936035156,-10.30666732788086,33.70975875854492,32.05768585205078,-25.514957427978516,-47.60676956176758,-16.95228385925293,-31.63861083984375],[12.617363929748535,31.24431800842285,-37.73863220214844,-21.751365661621094,30.763261795043945,-40.40013122558594,30.879478454589844,-7.20474100112915,-30.150056838989258],[49.07999038696289,-34.983272552490234,9.55956745147705,31.820722579956055,-32.48632049560547,-10.26747989654541,-18.66745948791504,48.594444274902344,9.506827354431152],[-47.444610595703125,23.920312881469727,-31.747770309448242,21.268985748291016,-16.09762191772461,-31.19904327392578,-30.898889541625977,-39.06695556640625,-26.514415740966797]],"biases":[-2.1651053428649902,-7.1273651123046875,-1.198645830154419,-32.708255767822266,41.48006820678711]},{"weights":[[-24.182294845581055,-14.77626895904541,7.110519886016846,-0.5499907732009888,-6.757622241973877],[-21.259735107421875,1.229638695716858,-56.289249420166016,-18.127309799194336,-38.28004455566406],[8.901323318481445,13.863322257995605,-31.00017738342285,6.363195419311523,-11.501532554626465],[-34.91639709472656,-27.523765563964844,-50.42308044433594,-0.6519409418106079,15.93405532836914],[-13.267775535583496,-26.201555252075195,13.909049987792969,12.299510955810547,-17.480192184448242]],"biases":[-3.6555092334747314,4.989169120788574,-11.694387435913086,23.81039810180664,19.612791061401367]},{"weights":[[-74.00589752197266,-2.2150909900665283,32.317665100097656,2.3185601234436035,28.9567813873291],[-4.16886568069458,2.6675801277160645,-10.379796981811523,0.29900890588760376,2.687319278717041],[-15.774078369140625,-8.32552719116211,-4.338041305541992,-1.6282011270523071,-3.0712990760803223],[18.471162796020508,-2.0366358757019043,-106.75406646728516,-0.43099379539489746,1.4381471872329712]],"biases":[-30.140472412109375,-3.2703864574432373,1.7110638618469238,-2.27010178565979]}],"inputLookup":{"0":0,"1":8,"2":6,"3":7,"4":1,"5":2,"6":3,"7":4,"8":5},"inputLookupLength":9,"outputLookup":{"2":3,"4":1,"6":0,"8":2},"outputLookupLength":4,"options":{"inputSize":9,"outputSize":5,"binaryThresh":0.5,"hiddenLayers":[9,5,5],"activation":"sigmoid","leakyReluAlpha":0.01},"trainOpts":{"activation":"sigmoid","iterations":20000,"errorThresh":0.005,"log":true,"logPeriod":2000,"leakyReluAlpha":0.01,"learningRate":0.3,"momentum":0.1,"callbackPeriod":10,"timeout":"Infinity","beta1":0.9,"beta2":0.999,"epsilon":1e-8}}