{"type":"NeuralNetwork","sizes":[9,9,5,5,4],"layers":[{"weights":[],"biases":[]},{"weights":[[-45.88975524902344,-83.93608856201172,5.104791164398193,48.63621520996094,-10.426569938659668,-97.22207641601562,116.97419738769531,-5.633737087249756,4.473938941955566],[2.5472354888916016,-72.22666931152344,-13.167108535766602,-92.39041900634766,-28.98333168029785,126.55274963378906,-79.55268859863281,-44.99020767211914,9.272953033447266],[-2.886011838912964,112.83177185058594,-8.32421875,57.540931701660156,0.7787893414497375,-76.44741821289062,-114.42991638183594,-5.513505458831787,12.866445541381836],[5.400592803955078,-112.88794708251953,-5.960133075714111,119.27601623535156,6.911979675292969,44.09645080566406,-62.59503936767578,13.067281723022461,-0.19328255951404572],[4.607985019683838,-132.24215698242188,-56.4047737121582,-59.31853103637695,10.687525749206543,-27.314903259277344,138.38565063476562,-7.691681385040283,7.142424583435059],[-41.314735412597656,92.63165283203125,43.822471618652344,-10.051671028137207,1.9753663539886475,-61.0013313293457,-66.08673095703125,-11.444513320922852,-30.132549285888672],[-2.1284537315368652,59.74138641357422,24.930620193481445,-16.106098175048828,-0.9235495328903198,-137.28016662597656,113.59846496582031,29.00554847717285,-13.393232345581055],[12.537887573242188,-137.73825073242188,13.544055938720703,160.59994506835938,23.997922897338867,-45.749202728271484,-38.27116394042969,-28.08504295349121,16.643817901611328],[87.59202575683594,54.987850189208984,-70.1463623046875,26.054668426513672,17.138023376464844,-31.688486099243164,14.876111030578613,16.575973510742188,-16.258464813232422]],"biases":[-14.013620376586914,-41.41429901123047,2.4078149795532227,6.460709571838379,0.26069557666778564,-10.995168685913086,17.749662399291992,-34.93727111816406,18.863544464111328]},{"weights":[[-32.80262756347656,47.49000930786133,11.032671928405762,29.42359161376953,-24.69846534729004,-16.406591415405273,-10.895889282226562,60.39789962768555,-22.99030113220215],[-22.074472427368164,37.166996002197266,-53.67551040649414,28.33039665222168,30.256671905517578,-26.409326553344727,-61.334190368652344,-15.629878997802734,-13.776819229125977],[41.04827117919922,53.47454833984375,-42.06514358520508,-14.652287483215332,48.684593200683594,-28.02480125427246,12.874970436096191,-19.76479721069336,-26.920284271240234],[42.935543060302734,-28.280170440673828,25.344520568847656,34.67030715942383,-49.950706481933594,-11.861411094665527,-36.079444885253906,56.20768356323242,-1.529057264328003],[-65.29293823242188,45.74681854248047,-8.92347526550293,35.48471450805664,-13.261299133300781,-37.96955490112305,-14.223356246948242,-40.20240783691406,-34.814361572265625]],"biases":[-2.823667049407959,-4.748166561126709,11.534881591796875,-25.143375396728516,41.64626693725586]},{"weights":[[-39.78464889526367,8.651975631713867,6.737877368927002,-3.107866048812866,-6.231732368469238],[-27.0172176361084,5.336556911468506,-67.29601287841797,-27.90771484375,-44.18046188354492],[7.945119857788086,12.928367614746094,-83.65739440917969,-3.1510791778564453,-6.818375587463379],[-59.38493728637695,-40.23331832885742,-74.74803924560547,-9.17614459991455,38.12811279296875],[1.8285744190216064,-40.628395080566406,19.80335235595703,8.892032623291016,-16.57723045349121]],"biases":[-3.9907162189483643,-0.20911377668380737,-2.376479148864746,31.968225479125977,19.216445922851562]},{"weights":[[-93.50689697265625,-6.58461332321167,4.644132137298584,-0.4585419297218323,7.412365913391113],[1.2615389823913574,9.939437866210938,0.9805898070335388,4.99857234954834,13.155035972595215],[-5.831966876983643,-19.63726234436035,-3.6730077266693115,-0.6123369932174683,-6.378206253051758],[6.630406856536865,12.734678268432617,-125.60702514648438,-0.2616458237171173,6.240269660949707]],"biases":[-7.845578193664551,-18.949556350708008,6.3297119140625,-6.906982421875]}],"inputLookup":{"0":0,"1":8,"2":6,"3":7,"4":1,"5":2,"6":3,"7":4,"8":5},"inputLookupLength":9,"outputLookup":{"2":3,"4":1,"6":0,"8":2},"outputLookupLength":4,"options":{"inputSize":9,"outputSize":5,"binaryThresh":0.5,"hiddenLayers":[9,5,5],"activation":"sigmoid","leakyReluAlpha":0.01},"trainOpts":{"activation":"sigmoid","iterations":20000,"errorThresh":0.005,"log":true,"logPeriod":2000,"leakyReluAlpha":0.01,"learningRate":0.3,"momentum":0.1,"callbackPeriod":10,"timeout":"Infinity","beta1":0.9,"beta2":0.999,"epsilon":1e-8}}