{"type":"NeuralNetwork","sizes":[9,9,5,5,4],"layers":[{"weights":[],"biases":[]},{"weights":[[4.561456203460693,-27.396385192871094,1.895308017730713,-23.64988899230957,-13.402402877807617,43.20576477050781,-27.646411895751953,-14.178122520446777,1.327492117881775],[17.500696182250977,41.181758880615234,-20.956201553344727,-9.352799415588379,10.543688774108887,-35.79798126220703,-22.985431671142578,-12.717540740966797,1.709903597831726],[6.7943291664123535,-25.671653747558594,-10.966666221618652,40.47769546508789,-1.3759418725967407,-27.061424255371094,-28.25048065185547,-10.236876487731934,6.58927059173584],[4.494937419891357,-30.214046478271484,12.02281665802002,29.67272186279297,12.068714141845703,-30.021041870117188,-25.620100021362305,-32.51105499267578,-26.29421615600586],[-13.001205444335938,-29.40615463256836,-0.4169897437095642,-9.950621604919434,-12.683837890625,36.99543380737305,-25.54730796813965,9.344202041625977,33.3656005859375],[-22.431167602539062,43.57511901855469,22.442018508911133,-22.08095359802246,8.79129409790039,-19.546865463256836,1.6551246643066406,7.3860249519348145,-41.87612533569336],[13.285274505615234,12.71160888671875,15.246626853942871,21.930381774902344,-13.128896713256836,18.405208587646484,-48.960262298583984,12.495503425598145,5.878161907196045],[3.338822364807129,-0.9125730395317078,19.09824562072754,24.162817001342773,-4.125255107879639,-47.25312042236328,30.60542106628418,-5.655766010284424,3.952967643737793],[-8.518403053283691,-25.794330596923828,-11.530448913574219,29.49580192565918,48.07883834838867,13.440155029296875,-3.7867438793182373,-14.936444282531738,-10.948543548583984]],"biases":[8.425840377807617,3.4560601711273193,13.93786334991455,-30.159317016601562,-4.443412780761719,-3.5119307041168213,-9.805289268493652,-3.5356383323669434,8.390684127807617]},{"weights":[[-15.575030326843262,24.14087677001953,-13.293900489807129,-12.22072696685791,19.472288131713867,19.886442184448242,-7.329347133636475,7.821942329406738,-12.830181121826172],[-16.087759017944336,8.466825485229492,12.826099395751953,16.45457649230957,-12.791831970214844,-31.581417083740234,-9.705110549926758,21.252729415893555,-9.09278678894043],[-15.555829048156738,4.6649394035339355,2.8707115650177,34.46922302246094,-15.185964584350586,19.846839904785156,6.73172664642334,11.786656379699707,-7.374893665313721],[7.397463798522949,-5.364556312561035,-20.62006378173828,-15.030035972595215,-17.923799514770508,4.975675582885742,-24.10227394104004,11.350981712341309,-20.103002548217773],[-16.890762329101562,32.43212127685547,-7.7578816413879395,15.158602714538574,-10.002456665039062,-16.373613357543945,9.729145050048828,5.529050350189209,-1.9954745769500732]],"biases":[-0.41561201214790344,10.943364143371582,-13.043270111083984,24.622385025024414,-5.008630275726318]},{"weights":[[-13.181139945983887,-3.699242115020752,25.520898818969727,-16.980484008789062,14.397688865661621],[4.817166328430176,6.2784528732299805,-15.419586181640625,20.417421340942383,-15.49335765838623],[-19.1253662109375,10.385114669799805,2.4887142181396484,1.7841616868972778,-11.311928749084473],[4.527419567108154,-13.760128021240234,-8.37403678894043,-12.758673667907715,6.14563512802124],[-3.5829579830169678,-18.681312561035156,-8.399395942687988,-17.205883026123047,-15.022924423217773]],"biases":[-19.26552963256836,-12.22863483428955,17.259111404418945,5.087673187255859,19.274255752563477]},{"weights":[[9.1021146774292,-3.729456901550293,2.50803279876709,-6.009271144866943,3.3058345317840576],[-30.136329650878906,-3.6513702869415283,12.894915580749512,12.836182594299316,-0.7945681810379028],[-4.58835506439209,-16.618576049804688,-4.999478340148926,0.6950151324272156,-4.803250312805176],[-6.0262556076049805,10.647202491760254,2.9222166538238525,-44.365352630615234,-1.3795949220657349]],"biases":[-3.946913003921509,-14.131306648254395,3.996450424194336,-3.4245822429656982]}],"inputLookup":{"0":0,"1":8,"2":6,"3":7,"4":1,"5":2,"6":3,"7":4,"8":5},"inputLookupLength":9,"outputLookup":{"2":3,"4":2,"6":0,"8":1},"outputLookupLength":4,"options":{"inputSize":9,"outputSize":5,"binaryThresh":0.5,"hiddenLayers":[9,5,5],"activation":"sigmoid","leakyReluAlpha":0.01},"trainOpts":{"activation":"sigmoid","iterations":20000,"errorThresh":0.005,"log":true,"logPeriod":2000,"leakyReluAlpha":0.01,"learningRate":0.3,"momentum":0.1,"callbackPeriod":10,"timeout":"Infinity","beta1":0.9,"beta2":0.999,"epsilon":1e-8}}