{"type":"NeuralNetwork","sizes":[9,9,5,5,4],"layers":[{"weights":[],"biases":[]},{"weights":[[-14.350783348083496,-45.28133010864258,1.5751993656158447,-37.967716217041016,-47.5002555847168,58.67338180541992,-21.97907257080078,-21.172534942626953,13.330965995788574],[-23.650909423828125,78.96739196777344,14.696894645690918,-40.91025161743164,-24.439960479736328,-40.16510772705078,-36.97443771362305,-29.252531051635742,1.1446069478988647],[11.089715003967285,-72.80985260009766,-8.201909065246582,84.37266540527344,-16.909435272216797,-44.37601852416992,-54.61826705932617,5.222275733947754,-1.1500245332717896],[15.41495418548584,-42.592567443847656,39.82706832885742,46.5695686340332,11.960906028747559,-34.424888610839844,-32.10818099975586,-43.11654281616211,0.20705021917819977],[-3.0850188732147217,-53.431888580322266,-22.6633243560791,-14.758935928344727,-5.8098978996276855,51.352027893066406,9.037531852722168,8.770476341247559,48.73786926269531],[-20.199405670166016,63.19210433959961,29.15774154663086,-75.72312927246094,-22.113052368164062,8.131850242614746,-55.704246520996094,-2.3752927780151367,-54.36325454711914],[-11.810416221618652,63.2298583984375,-11.03087329864502,43.823814392089844,22.278038024902344,43.34693145751953,-92.04395294189453,-0.1640755832195282,0.2531980574131012],[-8.117839813232422,59.23927307128906,5.197059154510498,69.14710235595703,10.075247764587402,-119.67124938964844,45.43856430053711,-6.2636284828186035,17.53433609008789],[-3.0263102054595947,-63.8167724609375,-21.03424072265625,36.89226531982422,15.777190208435059,81.43423461914062,-30.568634033203125,-13.559025764465332,4.251491069793701]],"biases":[15.256571769714355,-20.888368606567383,10.231904983520508,-39.87617111206055,-3.829580783843994,9.70191764831543,2.622422695159912,1.9493110179901123,-0.8483237624168396]},{"weights":[[-17.70747184753418,26.528390884399414,-25.88692283630371,-12.123618125915527,43.87470626831055,-9.208659172058105,-30.121957778930664,7.675650119781494,-45.648399353027344],[-0.9948620200157166,-39.73643493652344,46.04412078857422,2.4659125804901123,-0.7063249349594116,-39.79765701293945,-31.869531631469727,37.041961669921875,-23.7419376373291],[-27.099618911743164,7.610237121582031,32.23442840576172,15.618912696838379,-1.025326132774353,44.16325759887695,24.960729598999023,30.623720169067383,-6.959535598754883],[7.984975814819336,30.997802734375,-23.188846588134766,-37.45061111450195,-8.024224281311035,22.21244239807129,-38.37697982788086,25.081207275390625,-25.037578582763672],[-20.14003562927246,61.284000396728516,-5.510880470275879,2.297231912612915,-23.83089256286621,-29.90953254699707,37.18973159790039,22.534576416015625,-30.826873779296875]],"biases":[25.252838134765625,26.302074432373047,-53.615760803222656,20.941762924194336,-24.755245208740234]},{"weights":[[-11.696624755859375,2.2430455684661865,15.21252155303955,-10.50386905670166,6.721468925476074],[21.778005599975586,-5.443439960479736,-2.839566946029663,4.371859073638916,-33.979347229003906],[-1.726799488067627,14.45256519317627,-4.657425403594971,-6.722430229187012,-24.939023971557617],[-6.138890743255615,-13.159502029418945,-7.244133949279785,-7.3764801025390625,-5.148040771484375],[-1.6964175701141357,-30.552288055419922,-32.79879379272461,2.24729061126709,-37.78115463256836]],"biases":[-12.890869140625,-20.147323608398438,22.13472557067871,10.578932762145996,30.296749114990234]},{"weights":[[5.099883079528809,-28.796680450439453,2.7806990146636963,-6.54730749130249,0.6133098006248474],[-3.295851469039917,-7.353548049926758,44.452213287353516,13.732524871826172,2.786252498626709],[-5.9607319831848145,2.940793037414551,-5.0265607833862305,5.90081262588501,-8.373556137084961],[-39.123008728027344,6.634699821472168,3.3309519290924072,-60.711456298828125,-0.3323909342288971]],"biases":[-4.044449806213379,-45.652313232421875,4.081363677978516,-4.300896167755127]}],"inputLookup":{"0":0,"1":8,"2":6,"3":7,"4":1,"5":2,"6":3,"7":4,"8":5},"inputLookupLength":9,"outputLookup":{"2":3,"4":2,"6":0,"8":1},"outputLookupLength":4,"options":{"inputSize":9,"outputSize":5,"binaryThresh":0.5,"hiddenLayers":[9,5,5],"activation":"sigmoid","leakyReluAlpha":0.01},"trainOpts":{"activation":"sigmoid","iterations":20000,"errorThresh":0.005,"log":true,"logPeriod":2000,"leakyReluAlpha":0.01,"learningRate":0.3,"momentum":0.1,"callbackPeriod":10,"timeout":"Infinity","beta1":0.9,"beta2":0.999,"epsilon":1e-8}}