{"type":"NeuralNetwork","sizes":[9,9,5,5,4],"layers":[{"weights":[],"biases":[]},{"weights":[[-8.599706649780273,-16.14571189880371,16.35146141052246,-15.688584327697754,13.397197723388672,32.9681396484375,13.360372543334961,40.23210144042969,0.8531983494758606],[-8.60366439819336,-41.005523681640625,-22.371774673461914,-22.850326538085938,-4.394294261932373,64.9519271850586,-9.741292953491211,-12.679506301879883,8.69931697845459],[-9.74512767791748,21.460603713989258,-7.737909317016602,37.347084045410156,-2.1817283630371094,-57.31340408325195,-16.611234664916992,-11.878683090209961,-9.299856185913086],[28.518943786621094,-34.12886428833008,-7.461996078491211,-28.20635414123535,-3.1631338596343994,-42.77128982543945,50.23179244995117,19.621082305908203,-6.32286262512207],[-22.032480239868164,46.61408615112305,-8.0512113571167,-32.97023010253906,-14.357207298278809,-10.89676570892334,-28.405773162841797,25.221254348754883,-0.41110023856163025],[-52.3709602355957,14.870707511901855,-31.485639572143555,5.2586350440979,-5.999607563018799,-23.33650779724121,47.33723449707031,-9.931693077087402,15.004225730895996],[-40.444915771484375,20.68890380859375,-11.486898422241211,-44.8825798034668,8.242303848266602,-25.3100528717041,-25.448997497558594,-10.75718879699707,-8.082758903503418],[-18.54483413696289,40.215057373046875,-3.5243818759918213,1.0767720937728882,-28.384767532348633,15.51356029510498,-10.223817825317383,21.724668502807617,-12.17493724822998],[11.897476196289062,-29.137319564819336,-13.561684608459473,40.82455062866211,1.0820200443267822,-31.92129898071289,-17.27779769897461,35.970489501953125,-11.003799438476562]],"biases":[-0.2532246708869934,4.406917095184326,14.338433265686035,4.878672122955322,5.594331741333008,1.4815340042114258,15.075371742248535,-24.193660736083984,-12.807510375976562]},{"weights":[[17.76624298095703,-28.101999282836914,-9.88606071472168,12.477557182312012,4.5133562088012695,18.23464012145996,30.066068649291992,15.371164321899414,-16.427772521972656],[18.113107681274414,-19.380239486694336,14.332266807556152,-6.091808319091797,-16.443950653076172,-16.526275634765625,-23.02363395690918,-11.288290977478027,18.957504272460938],[33.915706634521484,-16.590164184570312,-3.3326656818389893,-15.345273971557617,14.165839195251465,18.531082153320312,-3.860711097717285,-7.447517395019531,-11.638712882995605],[-12.170966148376465,-0.22030362486839294,18.653318405151367,-8.169873237609863,27.682043075561523,9.447895050048828,-1.7749773263931274,-0.8354619741439819,-19.301172256469727],[-4.667112827301025,-21.59458351135254,12.500645637512207,-28.22309684753418,24.2940616607666,-16.508975982666016,-9.261266708374023,5.363664627075195,7.2848639488220215]],"biases":[-12.987175941467285,-6.274449825286865,-11.767478942871094,-16.840749740600586,5.887929439544678]},{"weights":[[-2.8191864490509033,-7.1762285232543945,1.0230660438537598,-13.025484085083008,-14.486163139343262],[-0.35814765095710754,-27.62663459777832,15.940574645996094,-0.2934170961380005,-10.817536354064941],[-23.426536560058594,17.376333236694336,-9.742536544799805,3.8045811653137207,0.014973814599215984],[19.821605682373047,-7.700827121734619,22.65921974182129,-11.929248809814453,-14.461507797241211],[-19.353715896606445,-22.63075828552246,17.353792190551758,-9.556447982788086,-18.931577682495117]],"biases":[23.381563186645508,-2.920314073562622,3.9977569580078125,-31.25096893310547,4.750126361846924]},{"weights":[[-6.777476787567139,5.019637584686279,-3.5416064262390137,-6.029986381530762,-16.155609130859375],[5.822736740112305,-24.764928817749023,5.24354362487793,-8.431172370910645,-4.241378307342529],[3.0957562923431396,-2.629110813140869,-23.914669036865234,-23.581058502197266,23.83774757385254],[37.14005661010742,-5.482301712036133,-1.0895226001739502,10.285934448242188,1.4176065921783447]],"biases":[5.474101543426514,-7.043477535247803,-3.5996241569519043,-37.56910705566406]}],"inputLookup":{"0":0,"1":8,"2":6,"3":7,"4":1,"5":2,"6":3,"7":4,"8":5},"inputLookupLength":9,"outputLookup":{"2":3,"4":0,"6":1,"8":2},"outputLookupLength":4,"options":{"inputSize":9,"outputSize":5,"binaryThresh":0.5,"hiddenLayers":[9,5,5],"activation":"sigmoid","leakyReluAlpha":0.01},"trainOpts":{"activation":"sigmoid","iterations":20000,"errorThresh":0.005,"log":true,"logPeriod":2000,"leakyReluAlpha":0.01,"learningRate":0.3,"momentum":0.1,"callbackPeriod":10,"timeout":"Infinity","beta1":0.9,"beta2":0.999,"epsilon":1e-8}}