{"type":"NeuralNetwork","sizes":[9,9,5,5,4],"layers":[{"weights":[],"biases":[]},{"weights":[[4.94735860824585,4.850500106811523,25.283733367919922,-42.15774917602539,-21.4134464263916,41.7677116394043,27.482425689697266,52.988773345947266,-8.139177322387695],[-52.23972702026367,-90.93800354003906,-40.741676330566406,-23.454408645629883,-59.75251388549805,69.57849884033203,-16.75064468383789,-4.4416093826293945,19.788524627685547],[0.8712564706802368,79.5867919921875,-9.841375350952148,98.63799285888672,0.21479369699954987,-97.57891845703125,-75.20472717285156,0.10896027833223343,7.840160846710205],[-1.7295035123825073,-10.15921688079834,2.3350114822387695,-3.555328369140625,-0.1454281508922577,-114.79621887207031,129.38104248046875,-1.2042407989501953,-1.1439677476882935],[8.790002822875977,94.90469360351562,-18.820068359375,-67.54584503173828,-12.941556930541992,-79.40750122070312,-13.398382186889648,0.9503640532493591,-13.939620018005371],[-2.898083209991455,-16.611589431762695,-27.287086486816406,-25.408475875854492,-18.755769729614258,-91.29194641113281,115.32450103759766,-23.30072593688965,4.451292514801025],[-39.80833435058594,48.50284194946289,-7.055473327636719,-60.49702453613281,15.619710922241211,-64.28052520751953,-26.076719284057617,3.9668331146240234,-22.6263370513916],[-19.183691024780273,43.029022216796875,-20.044105529785156,21.025833129882812,-60.072853088378906,-5.465095520019531,-45.095436096191406,5.080760478973389,-0.7320355176925659],[-5.731899738311768,-74.11324310302734,-5.6362199783325195,120.01056671142578,5.196888446807861,-42.265846252441406,-33.09111022949219,-12.002422332763672,4.061579704284668]],"biases":[15.532307624816895,-12.968657493591309,-3.362313985824585,-0.6937035918235779,-10.289285659790039,-31.17140769958496,-21.65540313720703,-37.13485336303711,-16.766132354736328]},{"weights":[[23.939945220947266,-36.74873352050781,-4.263823986053467,20.995174407958984,19.37320899963379,19.07040023803711,27.516841888427734,7.967067718505859,-46.49592971801758],[-0.295566201210022,-40.38261032104492,16.753480911254883,-21.598522186279297,-39.58268737792969,-36.87004089355469,-12.608917236328125,-17.263084411621094,26.416671752929688],[23.53887367248535,6.4774675369262695,-44.11903381347656,-41.8685417175293,-1.3923286199569702,39.692588806152344,-10.541655540466309,-6.7515692710876465,0.29040229320526123],[-17.755964279174805,25.7923583984375,22.726163864135742,-26.78438949584961,29.434795379638672,-21.367074966430664,34.393863677978516,11.743637084960938,-15.936141014099121],[-14.416022300720215,-30.52503204345703,35.11552429199219,-0.529743492603302,34.139957427978516,-10.710872650146484,7.550782680511475,30.50277328491211,7.78674840927124]],"biases":[-10.04124641418457,17.74534797668457,-23.893850326538086,-8.612899780273438,-18.883920669555664]},{"weights":[[-1.522302508354187,-13.0748929977417,-15.279208183288574,-20.11475372314453,-19.972185134887695],[12.465520858764648,-22.298141479492188,27.86886215209961,-4.79656982421875,-19.826627731323242],[-30.683570861816406,27.7170352935791,25.078310012817383,-14.650328636169434,-17.88299560546875],[26.663253784179688,-32.52283477783203,16.713665008544922,12.401183128356934,0.4564523994922638],[-7.287302017211914,0.45471322536468506,35.0327262878418,-14.029951095581055,-25.37299346923828]],"biases":[25.33355140686035,-11.774171829223633,-1.5277732610702515,-28.400436401367188,-0.6773450374603271]},{"weights":[[-0.7882751226425171,-9.540922164916992,-4.643339157104492,6.390706539154053,-19.536285400390625],[-1.0568124055862427,-21.736968994140625,3.2980661392211914,-21.45087242126465,-6.295214653015137],[1.1840413808822632,3.0553858280181885,-2.096701145172119,-40.7329216003418,5.558043479919434],[38.15322494506836,4.892360687255859,-17.848609924316406,7.400097846984863,7.319015026092529]],"biases":[-0.7732328176498413,-0.5027855634689331,-2.1067328453063965,-38.57819366455078]}],"inputLookup":{"0":0,"1":8,"2":6,"3":7,"4":1,"5":2,"6":3,"7":4,"8":5},"inputLookupLength":9,"outputLookup":{"2":3,"4":0,"6":1,"8":2},"outputLookupLength":4,"options":{"inputSize":9,"outputSize":5,"binaryThresh":0.5,"hiddenLayers":[9,5,5],"activation":"sigmoid","leakyReluAlpha":0.01},"trainOpts":{"activation":"sigmoid","iterations":20000,"errorThresh":0.005,"log":true,"logPeriod":2000,"leakyReluAlpha":0.01,"learningRate":0.3,"momentum":0.1,"callbackPeriod":10,"timeout":"Infinity","beta1":0.9,"beta2":0.999,"epsilon":1e-8}}