{"type":"NeuralNetwork","sizes":[9,9,5,5,4],"layers":[{"weights":[],"biases":[]},{"weights":[[17.970924377441406,8.95244026184082,-22.69475746154785,-19.213905334472656,12.156922340393066,17.1562557220459,-13.31369686126709,-4.995013236999512,-32.96866226196289],[8.98092269897461,-30.362089157104492,-7.236746788024902,47.4122200012207,2.1204652786254883,-24.666975021362305,-24.383386611938477,1.8503236770629883,15.841080665588379],[10.679539680480957,-17.998674392700195,27.813650131225586,7.415005207061768,-14.322154998779297,6.3137712478637695,-1.9377509355545044,-21.075176239013672,-0.6533805131912231],[13.309720039367676,38.04304885864258,1.2073721885681152,-37.28599548339844,-20.701095581054688,-25.108612060546875,1.5345689058303833,8.81255054473877,7.589787006378174],[-3.8989880084991455,-12.61750602722168,-16.000648498535156,-6.105011940002441,-14.221626281738281,23.73699188232422,-26.67328643798828,8.41146469116211,5.711377143859863],[-12.848920822143555,-29.914295196533203,-4.824124813079834,11.606988906860352,-19.46268653869629,17.775394439697266,56.58966064453125,-18.802352905273438,-2.03029727935791],[-29.89788246154785,2.636039972305298,-9.610228538513184,-30.285982131958008,3.783352851867676,48.13509750366211,-7.066377639770508,-1.8856325149536133,5.324349880218506],[-3.440168857574463,-30.686336517333984,5.014794826507568,-28.238197326660156,10.665942192077637,-19.848487854003906,34.82304763793945,4.536135196685791,3.0148675441741943],[-5.292586326599121,-31.169004440307617,-22.85692024230957,-7.636035919189453,-3.163017749786377,8.461191177368164,36.038211822509766,2.628314971923828,-10.008708953857422]],"biases":[-11.978336334228516,-0.03240896388888359,3.2286200523376465,1.5595964193344116,16.283489227294922,3.7627077102661133,4.290432929992676,-7.487795352935791,-1.4007441997528076]},{"weights":[[-3.7521615028381348,4.6592698097229,14.782881736755371,-9.485923767089844,11.574790954589844,9.404945373535156,8.892873764038086,-8.829570770263672,1.3931134939193726],[7.661623001098633,-21.826671600341797,-9.04979133605957,15.113858222961426,-26.73874282836914,31.169851303100586,-1.3423670530319214,27.467365264892578,18.356172561645508],[-16.028722763061523,11.448006629943848,8.77253246307373,-17.407848358154297,18.421485900878906,-2.8503708839416504,-16.984514236450195,0.526802659034729,-26.47648811340332],[-11.302896499633789,-11.959089279174805,4.4045515060424805,-7.694973468780518,-4.858114719390869,4.0931220054626465,14.296003341674805,20.95672035217285,19.691268920898438],[27.036090850830078,-22.673171997070312,-5.344081401824951,-17.653688430786133,10.92230224609375,11.562626838684082,8.916427612304688,-18.364582061767578,-12.472774505615234]],"biases":[-11.979474067687988,-18.83068084716797,-3.2558934688568115,-16.191205978393555,-4.871827125549316]},{"weights":[[-13.171279907226562,-0.7513562440872192,9.69734001159668,-14.999796867370605,-10.443198204040527],[-13.005090713500977,-9.982129096984863,0.004318238236010075,-1.8499246835708618,5.56532621383667],[-6.772133827209473,27.05855369567871,-2.6957907676696777,-14.71251392364502,-28.603116989135742],[-6.534244537353516,3.82753586769104,-9.43720531463623,4.258725166320801,-5.07149076461792],[-6.8744964599609375,7.362672328948975,27.802682876586914,-13.141047477722168,-14.97109317779541]],"biases":[10.997252464294434,5.193655014038086,11.352193832397461,-1.0308098793029785,-19.12723731994629]},{"weights":[[4.007320404052734,3.3633365631103516,2.646210193634033,-4.073627948760986,-13.218094825744629],[0.9350563883781433,-4.234219074249268,25.766681671142578,-6.528804779052734,8.495609283447266],[-2.706928253173828,-6.823989391326904,-7.6502299308776855,-34.01820755004883,-0.9727049469947815],[-10.184011459350586,1.7395185232162476,6.08586311340332,12.56623363494873,-7.821943759918213]],"biases":[-3.9450347423553467,-26.629554748535156,6.284677505493164,-6.023953437805176]}],"inputLookup":{"0":0,"1":8,"2":6,"3":7,"4":1,"5":2,"6":3,"7":4,"8":5},"inputLookupLength":9,"outputLookup":{"2":3,"4":0,"6":1,"8":2},"outputLookupLength":4,"options":{"inputSize":9,"outputSize":5,"binaryThresh":0.5,"hiddenLayers":[9,5,5],"activation":"sigmoid","leakyReluAlpha":0.01},"trainOpts":{"activation":"sigmoid","iterations":20000,"errorThresh":0.005,"log":true,"logPeriod":2000,"leakyReluAlpha":0.01,"learningRate":0.3,"momentum":0.1,"callbackPeriod":10,"timeout":"Infinity","beta1":0.9,"beta2":0.999,"epsilon":1e-8}}