{"type":"NeuralNetwork","sizes":[9,9,5,5,4],"layers":[{"weights":[],"biases":[]},{"weights":[[38.71617126464844,-4.282061576843262,-36.76789855957031,-30.353830337524414,4.555975914001465,66.0061264038086,-15.971932411193848,-15.789963722229004,-25.963674545288086],[28.565412521362305,-62.94236755371094,4.909726142883301,96.65264129638672,9.358716011047363,-71.64163208007812,-32.46388244628906,-7.039322853088379,-10.75009536743164],[37.672935485839844,-53.4423713684082,34.171852111816406,59.355045318603516,-34.55977249145508,7.129821300506592,-17.8715877532959,-45.64158248901367,10.742517471313477],[-9.035264015197754,89.93310546875,-0.796370267868042,-73.30440521240234,-2.899773597717285,-65.93949890136719,55.16205596923828,-4.449823379516602,6.798171043395996],[-19.121755599975586,-26.405963897705078,-51.56060028076172,7.796464443206787,12.351699829101562,67.68035125732422,-79.3318862915039,-8.909154891967773,-9.747538566589355],[-4.929088115692139,-111.31391906738281,0.7157992124557495,14.64996337890625,-18.971160888671875,64.89104461669922,108.54854583740234,13.000234603881836,3.429694652557373],[-29.29767417907715,-31.501893997192383,-19.957759857177734,-54.8400993347168,-2.544848680496216,125.88714599609375,-47.91387939453125,-10.118370056152344,11.016644477844238],[-59.79820251464844,-90.04402923583984,13.781134605407715,-41.11752700805664,44.23676300048828,-50.249969482421875,56.0931396484375,26.240381240844727,18.17437744140625],[20.501131057739258,-88.62437438964844,-38.84043502807617,-55.01561737060547,0.31190866231918335,12.129121780395508,107.43778228759766,12.434056282043457,-5.530136585235596]],"biases":[-47.29606628417969,-10.579691886901855,22.728391647338867,-2.149228096008301,18.9759521484375,-4.412932872772217,-9.646027565002441,-19.42064094543457,-13.661825180053711]},{"weights":[[1.2602565288543701,22.502168655395508,45.283512115478516,-34.161476135253906,48.70966720581055,20.73747444152832,13.534971237182617,-40.92860412597656,-27.785659790039062],[-29.69015884399414,-18.10761833190918,-20.953594207763672,-14.621070861816406,-29.296527862548828,54.425941467285156,-10.501864433288574,38.3315544128418,34.71527099609375],[-42.624149322509766,13.402129173278809,-15.532857894897461,-14.464284896850586,-3.5774264335632324,0.8518291711807251,1.1048946380615234,1.2645676136016846,-29.75155258178711],[2.884981155395508,-23.977331161499023,-20.365835189819336,-44.97969055175781,-21.30927848815918,5.444011211395264,54.992279052734375,50.98330307006836,19.40923500061035],[38.267738342285156,-48.82032012939453,-27.42677116394043,-28.793466567993164,-2.425490617752075,39.88789367675781,27.823596954345703,-21.299413681030273,-38.13833999633789]],"biases":[-31.98052215576172,-14.793492317199707,15.570784568786621,6.200534820556641,4.054769992828369]},{"weights":[[-13.668183326721191,-1.4566599130630493,4.3551554679870605,-37.96761703491211,-13.35600471496582],[-33.443843841552734,-19.931549072265625,15.950599670410156,-22.497404098510742,13.999149322509766],[-26.325525283813477,23.892263412475586,21.231603622436523,-26.451148986816406,-25.224933624267578],[-5.063551425933838,7.789534568786621,-3.791247844696045,0.6262711882591248,-7.954031467437744],[-0.12843918800354004,0.24559184908866882,50.623538970947266,-2.355192184448242,-16.05735969543457]],"biases":[9.0559663772583,11.760624885559082,30.581241607666016,-5.276477336883545,-50.76852798461914]},{"weights":[[6.04489803314209,1.3880120515823364,3.5123608112335205,-8.200639724731445,-25.24263572692871],[-0.9283319115638733,-2.4376168251037598,47.71989059448242,-3.277360200881958,11.127073287963867],[-34.34782028198242,-0.10750342905521393,-5.897847652435303,-2.755906820297241,1.3640295267105103],[-2.7347517013549805,0.1801949292421341,2.591092348098755,6.340747833251953,-10.644102096557617]],"biases":[-4.308371543884277,-48.36072540283203,4.837533473968506,-3.5035228729248047]}],"inputLookup":{"0":0,"1":8,"2":6,"3":7,"4":1,"5":2,"6":3,"7":4,"8":5},"inputLookupLength":9,"outputLookup":{"2":3,"4":0,"6":1,"8":2},"outputLookupLength":4,"options":{"inputSize":9,"outputSize":5,"binaryThresh":0.5,"hiddenLayers":[9,5,5],"activation":"sigmoid","leakyReluAlpha":0.01},"trainOpts":{"activation":"sigmoid","iterations":20000,"errorThresh":0.005,"log":true,"logPeriod":2000,"leakyReluAlpha":0.01,"learningRate":0.3,"momentum":0.1,"callbackPeriod":10,"timeout":"Infinity","beta1":0.9,"beta2":0.999,"epsilon":1e-8}}