{"type":"NeuralNetwork","sizes":[9,9,5,5,4],"layers":[{"weights":[],"biases":[]},{"weights":[[0.7734416723251343,61.317787170410156,-1.5952526330947876,16.499723434448242,-21.470712661743164,-29.58578872680664,-65.93904113769531,16.749998092651367,-17.632442474365234],[2.974487543106079,-79.95702362060547,-0.40702277421951294,93.80300903320312,22.942468643188477,-21.558990478515625,-83.25950622558594,14.861534118652344,-5.350326061248779],[13.577162742614746,-44.235233306884766,-18.393239974975586,-39.59326171875,-23.48516273498535,-89.82880401611328,96.82454681396484,-7.397637367248535,-8.264389038085938],[44.267330169677734,148.10557556152344,14.542122840881348,-70.23164367675781,-19.291994094848633,-51.19940185546875,-92.47383880615234,13.232309341430664,-4.983895301818848],[8.050334930419922,-20.956132888793945,-3.5239126682281494,-88.16584014892578,50.30634307861328,108.1910400390625,12.154443740844727,31.474576950073242,7.729398727416992],[33.00727462768555,-64.48819732666016,-6.869365692138672,-53.97807693481445,-10.468000411987305,91.54606628417969,-65.36007690429688,0.786814272403717,-3.5323197841644287],[-21.44717025756836,-38.108463287353516,-40.49343490600586,-38.86086654663086,21.353687286376953,81.76226043701172,-10.99585247039795,24.24126625061035,34.31434631347656],[-39.89167785644531,87.87013244628906,-27.44246482849121,42.09676742553711,-45.79151916503906,-19.380064010620117,-60.09083557128906,-31.565650939941406,7.5025200843811035],[-15.948737144470215,-69.444091796875,13.28139591217041,91.13164520263672,34.30351257324219,36.11104202270508,-64.75137329101562,-22.870452880859375,4.421906471252441]],"biases":[-8.649219512939453,10.163521766662598,15.331404685974121,-11.332877159118652,-11.924592018127441,2.605323314666748,-39.50591278076172,23.54283332824707,-55.72284698486328]},{"weights":[[-34.56155014038086,-31.99163055419922,17.244937896728516,-41.23480987548828,23.578968048095703,11.315592765808105,33.554901123046875,-1.5413099527359009,-2.933479070663452],[-11.445231437683105,5.20196008682251,11.147760391235352,1.0287843942642212,16.96171760559082,46.044498443603516,-32.74527359008789,-27.00453758239746,-39.38109588623047],[16.95929527282715,14.788141250610352,-38.67061233520508,-37.88774490356445,-25.22529411315918,-15.464241027832031,-17.71018409729004,-5.69752311706543,38.466976165771484],[-16.784757614135742,45.02703094482422,-22.88839340209961,-13.868282318115234,-1.9861606359481812,43.69026184082031,-15.102232933044434,19.10694694519043,17.50959587097168],[-11.260275840759277,-24.7840576171875,-47.91676712036133,-23.453323364257812,21.423906326293945,13.149419784545898,13.241473197937012,-6.406741142272949,18.132076263427734]],"biases":[-3.9677858352661133,8.645707130432129,6.673097133636475,-8.762627601623535,-5.340655326843262]},{"weights":[[-37.55111312866211,-2.9618234634399414,-10.27855396270752,-1.721695065498352,-3.3317837715148926],[-31.679475784301758,-22.5493221282959,16.051239013671875,-8.203532218933105,-12.743524551391602],[-6.045345783233643,-12.134795188903809,28.539037704467773,-2.6528356075286865,-2.2827186584472656],[5.232445240020752,-7.373674392700195,-24.7735538482666,-8.336738586425781,-14.083537101745605],[4.437288761138916,-4.1387200355529785,-48.70117950439453,-11.153752326965332,-18.479124069213867]],"biases":[25.704668045043945,10.081416130065918,-9.039338111877441,19.244728088378906,1.5246325731277466]},{"weights":[[9.189888000488281,0.6824305057525635,6.259843349456787,23.00557518005371,5.393447399139404],[1.1412073373794556,1.3485496044158936,3.4175641536712646,1.7524727582931519,-6.551370143890381],[-0.2871286869049072,-1.8056279420852661,-4.565765380859375,-5.109703540802002,-49.96816635131836],[-0.9440744519233704,-43.95366287231445,12.022082328796387,13.334132194519043,5.698850631713867]],"biases":[-32.870849609375,-3.9615724086761475,3.931244134902954,-12.703871726989746]}],"inputLookup":{"0":0,"1":8,"2":6,"3":7,"4":1,"5":2,"6":3,"7":4,"8":5},"inputLookupLength":9,"outputLookup":{"2":3,"4":0,"6":1,"8":2},"outputLookupLength":4,"options":{"inputSize":9,"outputSize":5,"binaryThresh":0.5,"hiddenLayers":[9,5,5],"activation":"sigmoid","leakyReluAlpha":0.01},"trainOpts":{"activation":"sigmoid","iterations":20000,"errorThresh":0.005,"log":true,"logPeriod":2000,"leakyReluAlpha":0.01,"learningRate":0.3,"momentum":0.1,"callbackPeriod":10,"timeout":"Infinity","beta1":0.9,"beta2":0.999,"epsilon":1e-8}}