{"type":"NeuralNetwork","sizes":[9,9,5,5,4],"layers":[{"weights":[],"biases":[]},{"weights":[[11.378172874450684,4.873107433319092,20.960893630981445,12.821882247924805,-3.54195237159729,-23.87971305847168,-5.4420318603515625,-12.512787818908691,-8.35459041595459],[4.34864616394043,-29.894180297851562,3.4999163150787354,23.191938400268555,6.493352890014648,-4.505072593688965,-23.15011215209961,20.484233856201172,-15.622162818908691],[-2.302823305130005,-5.679221153259277,14.150075912475586,-37.54983901977539,-25.80402374267578,-29.96140480041504,39.872283935546875,-11.22824478149414,3.7525687217712402],[-0.5343025922775269,33.80450439453125,-5.656898021697998,-6.406679153442383,-1.2744994163513184,-19.128000259399414,-30.56575584411621,-0.23772607743740082,-2.289238214492798],[19.09687614440918,-14.03699779510498,-5.479267120361328,-29.522422790527344,26.67378807067871,30.199735641479492,-20.265705108642578,4.1812896728515625,-13.8074369430542],[10.899903297424316,-39.70112228393555,-5.925567150115967,-22.012292861938477,-15.1345796585083,26.79486656188965,-24.3387451171875,0.13726116716861725,9.52557373046875],[-18.66570472717285,-17.872798919677734,-20.680755615234375,5.200531959533691,-0.6850466132164001,29.373926162719727,-15.570733070373535,23.881921768188477,16.576147079467773],[-8.592219352722168,32.67170333862305,-7.264105796813965,9.398418426513672,-11.765349388122559,3.639305591583252,-25.497011184692383,-9.69991683959961,12.002376556396484],[-6.291953086853027,-25.294885635375977,5.781867504119873,38.36003112792969,12.165684700012207,-11.135955810546875,-22.847854614257812,-28.767135620117188,11.037193298339844]],"biases":[-2.5044124126434326,-9.472289085388184,0.9949931502342224,6.177801132202148,-22.01544189453125,9.045491218566895,-20.630041122436523,2.4667739868164062,-7.6578168869018555]},{"weights":[[-13.262002944946289,-13.059250831604004,11.75279426574707,-14.91482162475586,17.134279251098633,-0.1906091421842575,6.996496677398682,-6.842983722686768,-5.280047416687012],[-5.137174606323242,-15.757244110107422,4.7425642013549805,-9.160907745361328,-2.5744593143463135,26.439729690551758,-22.945499420166016,-25.81751823425293,-15.20604133605957],[7.096793174743652,11.127666473388672,-12.759613037109375,-16.656272888183594,-5.737287521362305,16.302013397216797,-7.405658721923828,-4.842361927032471,26.112834930419922],[-2.903212547302246,6.285264015197754,4.8204755783081055,-7.326767444610596,14.808881759643555,16.726661682128906,0.07177694141864777,13.175297737121582,11.653843879699707],[-9.166976928710938,-8.421514511108398,-21.41258430480957,-13.86610221862793,8.734697341918945,-5.693790435791016,15.951406478881836,15.106444358825684,-8.232741355895996]],"biases":[4.065813064575195,3.9821197986602783,-9.458868026733398,-16.1928768157959,-4.606265068054199]},{"weights":[[-33.36748123168945,-13.03724479675293,-10.36954402923584,1.34230375289917,-3.6651906967163086],[-8.53703498840332,-32.87799072265625,-10.633769989013672,-1.7952519655227661,-16.28635597229004],[-10.206737518310547,-6.254030704498291,7.6956682205200195,-2.303709030151367,-7.809686660766602],[-3.4385783672332764,5.496713638305664,-14.363168716430664,-15.270585060119629,-14.96062183380127],[0.42318975925445557,-12.08183479309082,-35.111385345458984,-3.0857746601104736,-2.0726661682128906]],"biases":[13.010537147521973,1.617901086807251,-0.9453887939453125,18.267436981201172,-0.6854035258293152]},{"weights":[[4.692702770233154,1.8046356439590454,-3.77042293548584,1.6664299964904785,14.128684997558594],[9.272977828979492,1.0843958854675293,9.580660820007324,0.8960021138191223,-26.705984115600586],[2.0632810592651367,1.9674464464187622,-21.06674575805664,-6.986114501953125,-12.624836921691895],[-3.7739617824554443,-12.446473121643066,-2.233612060546875,6.7085041999816895,11.690169334411621]],"biases":[-7.47557258605957,-11.420029640197754,3.8592638969421387,-3.9380743503570557]}],"inputLookup":{"0":0,"1":8,"2":6,"3":7,"4":1,"5":2,"6":3,"7":4,"8":5},"inputLookupLength":9,"outputLookup":{"2":3,"4":0,"6":1,"8":2},"outputLookupLength":4,"options":{"inputSize":9,"outputSize":5,"binaryThresh":0.5,"hiddenLayers":[9,5,5],"activation":"sigmoid","leakyReluAlpha":0.01},"trainOpts":{"activation":"sigmoid","iterations":20000,"errorThresh":0.005,"log":true,"logPeriod":2000,"leakyReluAlpha":0.01,"learningRate":0.3,"momentum":0.1,"callbackPeriod":10,"timeout":"Infinity","beta1":0.9,"beta2":0.999,"epsilon":1e-8}}