{"type":"NeuralNetwork","sizes":[9,9,5,5,4],"layers":[{"weights":[],"biases":[]},{"weights":[[5.889776229858398,-124.0927734375,-12.375199317932129,171.68951416015625,7.3767194747924805,-21.308738708496094,-51.70140838623047,-12.570237159729004,-7.341362476348877],[-21.905799865722656,-96.50531768798828,13.249649047851562,-98.94066619873047,-29.157817840576172,101.14905548095703,45.34406280517578,-0.666660487651825,19.795812606811523],[8.474903106689453,30.733610153198242,21.858171463012695,47.10456848144531,-11.693132400512695,-131.4876708984375,78.65728759765625,-10.400965690612793,-5.402977466583252],[25.433189392089844,-99.65416717529297,-18.922523498535156,-29.813034057617188,21.449588775634766,83.76553344726562,43.17045211791992,1.057555913925171,24.870737075805664],[-13.270805358886719,20.244945526123047,-26.452919006347656,20.792728424072266,8.855185508728027,-36.51763916015625,2.846290349960327,89.38145446777344,-15.038152694702148],[14.717660903930664,-107.89035034179688,22.07433319091797,99.96675872802734,-17.353309631347656,101.39804077148438,-65.71800994873047,11.42449951171875,-31.63046646118164],[9.41983699798584,-62.86524963378906,-2.999669313430786,-55.74793243408203,-2.256002187728882,-43.03091049194336,123.40180969238281,7.892383098602295,7.332751750946045],[9.774162292480469,-77.20086669921875,-42.29544448852539,40.449363708496094,19.263408660888672,-56.738861083984375,60.89791488647461,19.121315002441406,-15.877440452575684],[-2.0490541458129883,42.874446868896484,-1.6191552877426147,-61.603919982910156,-8.867137908935547,33.01607894897461,55.237266540527344,1.7877248525619507,-15.299546241760254]],"biases":[-3.6068811416625977,24.235008239746094,21.740262985229492,-23.0251407623291,28.21921730041504,-33.23019027709961,-21.18303108215332,0.27814629673957825,9.897981643676758]},{"weights":[[-1.5724272727966309,25.41075897216797,-40.902130126953125,32.39777755737305,-46.699249267578125,10.11013412475586,-35.93648910522461,7.233816623687744,18.22614860534668],[-3.2039387226104736,18.035253524780273,-3.2936673164367676,32.872314453125,-39.58863067626953,-28.6085147857666,47.98469161987305,28.91817855834961,20.833345413208008],[31.602943420410156,36.131370544433594,-36.335506439208984,-4.431142330169678,11.738696098327637,31.59422492980957,-37.00540542602539,14.048874855041504,-15.176589965820312],[37.53348159790039,-32.15939712524414,0.8888678550720215,-34.45081329345703,-8.426239967346191,-1.6465599536895752,-9.145307540893555,9.196571350097656,-28.941463470458984],[-17.05511474609375,24.537826538085938,-32.534175872802734,41.99021530151367,-15.338703155517578,28.633583068847656,-40.363983154296875,-25.07509994506836,32.379032135009766]],"biases":[0.6394330263137817,-27.543733596801758,-7.497230529785156,36.21417236328125,-26.124380111694336]},{"weights":[[-8.559325218200684,16.636188507080078,2.861884832382202,21.234203338623047,-7.293788909912109],[-10.314793586730957,-10.169395446777344,-17.40813636779785,6.134387016296387,-21.393205642700195],[11.232032775878906,-11.943649291992188,-33.290672302246094,9.290125846862793,-7.660539150238037],[-16.077438354492188,-24.06153106689453,19.874591827392578,14.548209190368652,6.4163289070129395],[-10.161127090454102,1.3532507419586182,1.1628329753875732,-15.091991424560547,-7.416521072387695]],"biases":[-6.977241516113281,27.592044830322266,-2.549389600753784,-20.41783332824707,9.247397422790527]},{"weights":[[-5.290006160736084,8.651249885559082,-0.3249254822731018,8.282965660095215,-5.700709819793701],[-3.0859599113464355,-3.2538816928863525,-55.781036376953125,-1.3699312210083008,-1.7088412046432495],[-3.1545069217681885,-1.901055932044983,10.823446273803711,-3.2096145153045654,6.713067054748535],[4.331650733947754,3.5233542919158936,-9.68908405303955,-26.643157958984375,3.1961004734039307]],"biases":[-4.483340263366699,4.022714138031006,-5.469089508056641,-7.873514175415039]}],"inputLookup":{"0":0,"1":8,"2":6,"3":7,"4":1,"5":2,"6":3,"7":4,"8":5},"inputLookupLength":9,"outputLookup":{"2":3,"4":2,"6":0,"8":1},"outputLookupLength":4,"options":{"inputSize":9,"outputSize":5,"binaryThresh":0.5,"hiddenLayers":[9,5,5],"activation":"sigmoid","leakyReluAlpha":0.01},"trainOpts":{"activation":"sigmoid","iterations":20000,"errorThresh":0.005,"log":true,"logPeriod":2000,"leakyReluAlpha":0.01,"learningRate":0.3,"momentum":0.1,"callbackPeriod":10,"timeout":"Infinity","beta1":0.9,"beta2":0.999,"epsilon":1e-8}}