{"type":"NeuralNetwork","sizes":[9,9,5,5,4],"layers":[{"weights":[],"biases":[]},{"weights":[[-9.430901527404785,-42.12104034423828,-17.31812858581543,65.29142761230469,0.5938813090324402,0.8269464373588562,-18.538972854614258,-4.601478099822998,0.020690497010946274],[-4.425171375274658,-13.430026054382324,-1.8665540218353271,-56.448143005371094,-11.015157699584961,24.483497619628906,28.517505645751953,-5.808764457702637,18.655834197998047],[-0.9231479167938232,-7.251901626586914,13.04746150970459,33.855587005615234,-14.069972038269043,-48.65708541870117,19.994779586791992,6.753200531005859,18.225292205810547],[14.03411865234375,-31.637989044189453,-11.513293266296387,-4.779825687408447,1.1014927625656128,19.372180938720703,11.571516036987305,4.9339494705200195,22.856464385986328],[-7.236670970916748,26.744680404663086,-2.908637285232544,12.364992141723633,-7.927677631378174,-7.007548809051514,12.178976058959961,24.953292846679688,-6.26243782043457],[24.9869327545166,-38.54966735839844,5.091557025909424,21.771072387695312,-8.200645446777344,16.961402893066406,-17.54892349243164,-5.247075080871582,15.720316886901855],[1.3661131858825684,-3.571007013320923,-10.516796112060547,-24.699390411376953,-6.845724105834961,-13.160872459411621,62.302120208740234,-13.292771339416504,-0.5415359735488892],[1.012906551361084,-31.903724670410156,-13.976676940917969,4.2341084480285645,9.974820137023926,5.269911289215088,22.814144134521484,1.2483798265457153,-13.08239459991455],[10.447931289672852,5.434261322021484,-1.0192018747329712,-28.38402557373047,13.367447853088379,-1.1269025802612305,3.2509305477142334,0.6015881299972534,-2.320436954498291]],"biases":[5.191313743591309,7.351402759552002,15.847832679748535,-6.632298469543457,-4.017227649688721,-4.696253299713135,-7.734696865081787,-2.9567337036132812,6.780060768127441]},{"weights":[[4.265765190124512,28.87807846069336,-16.215129852294922,2.290766716003418,-21.885549545288086,15.054056167602539,-17.46168327331543,5.449598789215088,-4.860321521759033],[-1.9393523931503296,20.314483642578125,2.2155003547668457,1.3797541856765747,-16.071163177490234,3.8406808376312256,19.069217681884766,10.001212120056152,10.161344528198242],[13.522358894348145,6.458052158355713,-14.81655216217041,-5.717527866363525,-3.5365688800811768,24.25027847290039,-12.149908065795898,17.892072677612305,-5.246297359466553],[28.224336624145508,-18.26226043701172,5.715471267700195,-15.350057601928711,-4.289971351623535,4.792816162109375,3.95703125,-8.997544288635254,-5.542995929718018],[-5.621175765991211,3.5298004150390625,-23.12017059326172,20.27576446533203,-10.011631965637207,10.764309883117676,-17.62047576904297,-8.987038612365723,18.16509437561035]],"biases":[-7.330144882202148,-20.142654418945312,-7.382182598114014,-5.445645809173584,-8.818840026855469]},{"weights":[[-18.071935653686523,13.952970504760742,9.626402854919434,27.653703689575195,-14.862180709838867],[-5.729987144470215,-15.668082237243652,-16.862112045288086,6.777747631072998,-10.497679710388184],[13.624719619750977,-13.020763397216797,-14.981114387512207,-0.6621235609054565,-20.14910888671875],[-12.135132789611816,-17.60460090637207,18.87822723388672,0.19061250984668732,-3.3773353099823],[-10.364046096801758,9.14273452758789,-7.51692008972168,-20.122900009155273,-13.330743789672852]],"biases":[-4.160778045654297,16.761503219604492,1.9740660190582275,-8.006749153137207,14.639047622680664]},{"weights":[[1.4721896648406982,11.587879180908203,-0.9835640788078308,5.85133695602417,-5.436463832855225],[-1.6919463872909546,-4.775306224822998,-6.650852203369141,-7.696253776550293,-5.929132461547852],[-4.551000595092773,1.9439514875411987,4.828324317932129,2.8257408142089844,2.3754820823669434],[4.116755485534668,4.771832466125488,-5.25429630279541,-3.8535618782043457,5.736597537994385]],"biases":[-8.162797927856445,8.378857612609863,-5.059940338134766,-10.98600959777832]}],"inputLookup":{"0":0,"1":8,"2":6,"3":7,"4":1,"5":2,"6":3,"7":4,"8":5},"inputLookupLength":9,"outputLookup":{"2":3,"4":2,"6":0,"8":1},"outputLookupLength":4,"options":{"inputSize":9,"outputSize":5,"binaryThresh":0.5,"hiddenLayers":[9,5,5],"activation":"sigmoid","leakyReluAlpha":0.01},"trainOpts":{"activation":"sigmoid","iterations":20000,"errorThresh":0.005,"log":true,"logPeriod":2000,"leakyReluAlpha":0.01,"learningRate":0.3,"momentum":0.1,"callbackPeriod":10,"timeout":"Infinity","beta1":0.9,"beta2":0.999,"epsilon":1e-8}}