{"type":"NeuralNetwork","sizes":[9,3,9],"layers":[{"weights":[],"biases":[]},{"weights":[[-0.057338897138834,0.003452559467405081,0.08700506389141083,0.1767728626728058,-0.1381278783082962,0.18731947243213654,-0.17035356163978577,-0.04593922942876816,0.10933393239974976],[-0.03420587629079819,0.1535174548625946,0.0677759200334549,-0.034230560064315796,0.05894014239311218,-0.005941737908869982,0.14554934203624725,-0.010343224741518497,0.07989755272865295],[0.07114607840776443,0.17244362831115723,-0.0638313740491867,0.02092939428985119,0.16306720674037933,0.04972419515252113,0.07244610041379929,-0.009412656538188457,0.17705971002578735]],"biases":[-0.07361152768135071,0.10916221141815186,0.08053112775087357]},{"weights":[[-0.18996280431747437,0.05651528388261795,-0.1477905958890915],[0.12291639298200607,0.10259292274713516,0.11943286657333374],[-0.12599533796310425,-0.11442242562770844,-0.1764896810054779],[-0.06194222718477249,0.018734782934188843,-0.0740499272942543],[-0.022174375131726265,-0.11074084788560867,0.03917492926120758],[-0.019092854112386703,-0.019596882164478302,0.04740365222096443],[0.06658579409122467,-0.1188938096165657,0.020855478942394257],[-0.1496906876564026,0.04943481460213661,0.05385613813996315],[0.15566620230674744,-0.1428949236869812,-0.07847225666046143]],"biases":[-37.56315994262695,-37.469688415527344,16.573253631591797,-37.47688674926758,16.9937686920166,-37.48992156982422,16.927106857299805,-37.38766098022461,16.554176330566406]}],"inputLookup":{"0":0,"1":1,"2":2,"3":3,"4":4,"5":5,"6":6,"7":7,"8":8},"inputLookupLength":9,"outputLookup":{"0":0,"1":1,"2":2,"3":3,"4":4,"5":5,"6":6,"7":7,"8":8},"outputLookupLength":9,"options":{"inputSize":0,"outputSize":0,"binaryThresh":0.5,"hiddenLayers":[3],"activation":"sigmoid","leakyReluAlpha":0.01},"trainOpts":{"activation":"sigmoid","iterations":20000,"errorThresh":0.005,"log":false,"logPeriod":10,"leakyReluAlpha":0.01,"learningRate":0.3,"momentum":0.1,"callbackPeriod":10,"timeout":"Infinity","beta1":0.9,"beta2":0.999,"epsilon":1e-8}}