{"type":"NeuralNetwork","sizes":[9,9,5,5,4],"layers":[{"weights":[],"biases":[]},{"weights":[[-31.011024475097656,-33.20940399169922,33.47568893432617,-45.183250427246094,-19.353731155395508,8.565299987792969,33.70847702026367,10.303915023803711,-20.330154418945312],[15.916424751281738,-12.232545852661133,-3.4003548622131348,-47.554222106933594,-5.46426248550415,98.83781433105469,-77.59942626953125,-9.250042915344238,-4.653285503387451],[-22.724506378173828,80.46061706542969,3.079930543899536,54.65304946899414,-9.954856872558594,30.536375045776367,-96.70581817626953,-18.929655075073242,-7.030306339263916],[-8.34469985961914,-95.1451187133789,21.20229721069336,98.97811126708984,-6.224998950958252,-53.839515686035156,-33.72367858886719,-3.93973708152771,-9.031672477722168],[-21.884035110473633,-26.826873779296875,11.137450218200684,-11.137707710266113,20.095848083496094,56.47010803222656,-31.70816421508789,1.8494195938110352,22.73644256591797],[-3.016350269317627,-26.166168212890625,-59.51922607421875,16.40561866760254,12.82751750946045,61.96678161621094,-79.66621398925781,15.583760261535645,14.577315330505371],[-22.280550003051758,-79.47358703613281,-26.255199432373047,62.11676025390625,4.153784275054932,38.551639556884766,59.9129638671875,-18.129047393798828,-4.243980884552002],[-34.24468231201172,52.27399826049805,-24.459922790527344,-64.60552215576172,7.9938883781433105,-61.90637969970703,-4.1516289710998535,16.245161056518555,24.02278709411621],[-1.0309456586837769,38.845420837402344,-24.636680603027344,79.50331115722656,39.3712158203125,-77.010498046875,-54.460872650146484,15.208318710327148,38.6463623046875]],"biases":[-11.749860763549805,1.5146363973617554,16.28938102722168,18.566946029663086,-40.067447662353516,-10.653223991394043,19.348480224609375,20.286304473876953,-34.89276885986328]},{"weights":[[1.6510032415390015,-22.769262313842773,-42.584476470947266,32.99556350708008,2.9969167709350586,-21.666662216186523,25.176076889038086,-17.813129425048828,9.170489311218262],[-23.56011390686035,0.7904433012008667,13.763927459716797,9.401381492614746,27.7259578704834,8.218607902526855,8.249221801757812,-29.382747650146484,-1.888210415840149],[15.642208099365234,8.39124584197998,-17.357131958007812,-11.123324394226074,15.610224723815918,-11.585573196411133,37.572933197021484,15.477156639099121,-13.937267303466797],[16.370874404907227,18.649932861328125,-17.731483459472656,35.355712890625,25.19784927368164,43.61708450317383,8.860796928405762,-16.564287185668945,26.794727325439453],[-2.830902338027954,48.8499755859375,-45.33492660522461,-0.6938024759292603,28.61339569091797,-1.2161078453063965,-3.2578272819519043,-1.787958025932312,-50.554542541503906]],"biases":[18.13583755493164,-21.222148895263672,-17.4638614654541,-7.85915994644165,2.5797603130340576]},{"weights":[[14.508160591125488,-8.886114120483398,2.7504074573516846,-30.74618148803711,-10.532190322875977],[33.06809997558594,-15.353521347045898,4.199312686920166,-28.088912963867188,-10.027464866638184],[-13.859618186950684,-9.624719619750977,-15.27701473236084,-18.37664031982422,-13.82268238067627],[-7.63557243347168,-1.7301669120788574,-13.498434066772461,-5.736833572387695,-9.740425109863281],[17.974279403686523,-15.868330955505371,-21.53685760498047,-27.227909088134766,5.306057929992676]],"biases":[31.461528778076172,-3.541407585144043,24.278545379638672,17.385622024536133,22.720197677612305]},{"weights":[[0.6825404763221741,-3.474957227706909,3.903550863265991,1.0097557306289673,4.632216930389404],[4.101813316345215,-0.26217177510261536,-5.021969795227051,7.535378932952881,-4.868605136871338],[-6.42012882232666,-5.1761040687561035,4.259275913238525,-7.999482154846191,-0.8712230324745178],[20.605716705322266,5.642714977264404,-1.086177945137024,-3.711489677429199,-1.3107194900512695]],"biases":[-5.115452289581299,-6.514434814453125,6.6496710777282715,-21.009933471679688]}],"inputLookup":{"0":0,"1":8,"2":6,"3":7,"4":1,"5":2,"6":3,"7":4,"8":5},"inputLookupLength":9,"outputLookup":{"2":3,"4":0,"6":1,"8":2},"outputLookupLength":4,"options":{"inputSize":9,"outputSize":5,"binaryThresh":0.5,"hiddenLayers":[9,5,5],"activation":"sigmoid","leakyReluAlpha":0.01},"trainOpts":{"activation":"sigmoid","iterations":20000,"errorThresh":0.005,"log":true,"logPeriod":2000,"leakyReluAlpha":0.01,"learningRate":0.3,"momentum":0.1,"callbackPeriod":10,"timeout":"Infinity","beta1":0.9,"beta2":0.999,"epsilon":1e-8}}