{"type":"NeuralNetwork","sizes":[5,9,5,5,1],"layers":[{"weights":[],"biases":[]},{"weights":[[0.0710405632853508,0.05668751150369644,-0.11064056307077408,-0.11860213428735733,-0.11755479872226715],[-0.020121339708566666,0.01778389886021614,-0.12064157426357269,0.1283562183380127,-0.05912768095731735],[0.09782654047012329,-0.17381572723388672,-0.09456884860992432,-0.14208894968032837,0.1260250061750412],[-0.11881664395332336,0.07750833034515381,-0.13603422045707703,0.034288618713617325,0.06902541220188141],[0.06615276634693146,0.16561384499073029,0.13496705889701843,0.055148009210824966,0.14802563190460205],[-0.07221176475286484,-0.17427049577236176,0.05635661631822586,0.06635979562997818,0.08085975795984268],[0.20817328989505768,-0.09760797768831253,0.09562236070632935,-0.15845851600170135,0.011883849278092384],[-0.11770825833082199,0.01617545448243618,0.16650056838989258,0.013619680888950825,-0.09774035215377808],[0.030460678040981293,-0.18401893973350525,0.16406142711639404,0.08071552217006683,-0.15282806754112244]],"biases":[-0.04385929927229881,-0.026164250448346138,0.01794053241610527,-0.01638616994023323,-0.1332811564207077,-0.17950710654258728,-0.0808630883693695,-0.036114081740379333,-0.12585560977458954]},{"weights":[[-0.065523162484169,0.08574820309877396,0.07453528791666031,-0.11169752478599548,-0.08663278073072433,-0.14691801369190216,-0.0651032030582428,-0.04089177027344704,-0.05461113899946213],[-0.05295388028025627,-0.0059220935218036175,0.03521036356687546,0.09048909693956375,0.11761005222797394,0.061313286423683167,0.2522467374801636,0.026568379253149033,0.27015161514282227],[0.2643131613731384,0.2346942275762558,0.28989624977111816,-0.047290168702602386,-0.031356871128082275,0.08477279543876648,0.30775660276412964,0.012043495662510395,0.25155359506607056],[0.22584868967533112,0.127366304397583,0.09571637958288193,0.17207708954811096,0.2325085699558258,0.1678800880908966,0.08323987573385239,0.3260083794593811,0.12081868201494217],[0.060513339936733246,-0.001759616658091545,0.30269655585289,0.20187610387802124,0.14098165929317474,0.21240955591201782,0.07647886872291565,0.15328975021839142,-0.01029518898576498]],"biases":[-0.045114461332559586,0.10342159867286682,0.4452366828918457,0.32884660363197327,0.2992943525314331]},{"weights":[[0.3749738335609436,0.43030691146850586,0.6079267263412476,0.4892639219760895,0.6121076345443726],[0.31006672978401184,0.512111485004425,0.5873172879219055,0.5,0.6097976565361023],[0.24026305973529816,0.5869207978248596,0.6179112792015076,0.6113610863685608,0.47535181045532227],[0.25,0.32956385612487793,0.6119784712791443,0.7526397109031677,0.4235484004020691],[0.2008100003004074,0.3250001072883606,0.48654985427856445,0.5,0.4485643804073334]],"biases":[0.5897461771965027,0.7672927975654602,0.784412682056427,0.7977725863456726,0.8826796412467957]},{"weights":[[2.764709949493408,3.055419921875,3.136781930923462,3.0589544773101807,2.6566224098205566]],"biases":[3.9054043292999268]}],"inputLookup":{"0":0,"2":4,"4":1,"6":2,"8":3},"inputLookupLength":5,"outputLookup":null,"outputLookupLength":0,"options":{"inputSize":0,"outputSize":0,"binaryThresh":0.5,"hiddenLayers":[9,5,5],"activation":"sigmoid","leakyReluAlpha":0.01},"trainOpts":{"activation":"sigmoid","iterations":20000,"errorThresh":0.005,"log":true,"logPeriod":2000,"leakyReluAlpha":0.01,"learningRate":0.3,"momentum":0.1,"callbackPeriod":10,"timeout":"Infinity","beta1":0.9,"beta2":0.999,"epsilon":1e-8}}