{"type":"NeuralNetwork","sizes":[9,3,9],"layers":[{"weights":[],"biases":[]},{"weights":[[0.12043894082307816,0.047766365110874176,0.18207527697086334,0.06609667092561722,0.10279521346092224,-0.05026538670063019,0.10099934786558151,-0.18567712604999542,0.12678740918636322],[-0.1950949728488922,-0.13791723549365997,-0.04567497968673706,-0.10891201347112656,-0.0506494976580143,0.13303157687187195,0.1651429980993271,0.012039648368954659,-0.0748135894536972],[-0.0372018925845623,-0.17236432433128357,-0.09426239877939224,0.062305353581905365,-0.1115197241306305,-0.1331392377614975,-0.030114198103547096,-0.18763336539268494,0.035041142255067825]],"biases":[-0.0010039968183264136,-0.12070593982934952,-0.0684911236166954]},{"weights":[[-0.19509203732013702,-40.823814392089844,-40.96771240234375],[0.04269365221261978,-41.42461395263672,-41.77265548706055],[0.00835449155420065,-40.62053298950195,-40.62804412841797],[-0.17607331275939941,-41.457584381103516,-41.823341369628906],[0.18097566068172455,-7.021917343139648,-7.129857063293457],[-0.1247020959854126,-40.89118194580078,-40.935401916503906],[0.27022460103034973,-7.02688455581665,-6.990602970123291],[0.11459124833345413,-41.084564208984375,-41.080997467041016],[0.12989000976085663,-41.704734802246094,-41.57199478149414]],"biases":[-36.917606353759766,-37.339569091796875,-36.623809814453125,-37.4390754699707,-6.12971305847168,-36.97770690917969,-6.3482561111450195,-36.71834945678711,-37.64400863647461]}],"inputLookup":{"0":0,"1":1,"2":2,"3":3,"4":4,"5":5,"6":6,"7":7,"8":8},"inputLookupLength":9,"outputLookup":{"0":0,"1":1,"2":2,"3":3,"4":4,"5":5,"6":6,"7":7,"8":8},"outputLookupLength":9,"options":{"inputSize":0,"outputSize":0,"binaryThresh":0.5,"hiddenLayers":[3],"activation":"sigmoid","leakyReluAlpha":0.01},"trainOpts":{"activation":"sigmoid","iterations":20000,"errorThresh":0.005,"log":true,"logPeriod":2000,"leakyReluAlpha":0.01,"learningRate":0.3,"momentum":0.1,"callbackPeriod":10,"timeout":"Infinity","beta1":0.9,"beta2":0.999,"epsilon":1e-8}}