{"type":"NeuralNetwork","sizes":[9,9,5,5,4],"layers":[{"weights":[],"biases":[]},{"weights":[[-0.13207149505615234,-0.04325936734676361,0.07706107944250107,-0.15573002398014069,-0.18821221590042114,0.052862584590911865,-0.15346981585025787,-0.18043051660060883,-0.0612507201731205],[0.1324637234210968,0.1422102153301239,-0.12261746823787689,0.002093859715387225,0.18202176690101624,-0.05253862589597702,0.1511469930410385,0.002451813081279397,0.008035415783524513],[-0.13332070410251617,-0.006483939941972494,0.02953791804611683,0.09125403314828873,-0.15425164997577667,-0.17978860437870026,-0.05889912694692612,0.11873918026685715,0.13146139681339264],[-0.12499994784593582,0.07408349215984344,0.19651532173156738,-0.10626480728387833,-0.10462840646505356,0.012631470337510109,0.011515083722770214,0.13801133632659912,-0.13570234179496765],[0.05089332535862923,0.1959007978439331,-0.11896240711212158,0.05504853278398514,0.09477148950099945,0.15709438920021057,0.01935233175754547,0.17754024267196655,-0.14566491544246674],[0.160472109913826,-0.14264321327209473,-0.04314514994621277,-0.1081228032708168,-0.008479827083647251,-0.06844548881053925,-0.011116822250187397,-0.06958000361919403,-0.08323968201875687],[-0.13891080021858215,0.17020685970783234,0.020317042246460915,0.16639749705791473,0.09388162940740585,-0.18836963176727295,0.012724027968943119,0.04913521185517311,0.10903200507164001],[0.06041240692138672,-0.11367109417915344,-0.05276266112923622,-0.033530138432979584,0.0024900296702980995,-0.17726989090442657,0.09226251393556595,-0.13280774652957916,0.15857179462909698],[-0.12034864723682404,-0.09878622740507126,-0.1601574718952179,-0.14424923062324524,0.17220920324325562,0.1380511373281479,-0.09616687148809433,-0.0904969722032547,-0.1565486341714859]],"biases":[0.08114257454872131,0.06841213256120682,0.10347352176904678,0.09302415698766708,0.004760050680488348,-0.04599994048476219,-0.1496594101190567,0.13536317646503448,-0.18888364732265472]},{"weights":[[0.18386054039001465,-0.08502306044101715,0.18210723996162415,0.07852397114038467,0.014472690410912037,0.3424547612667084,-0.1244203969836235,0.25,0.2561066150665283],[-0.12799131870269775,0.1593150943517685,-0.20083923637866974,-0.3157215118408203,0.12987902760505676,-0.02606961689889431,-0.1000782772898674,-0.16308467090129852,-0.12757451832294464],[0.05609060078859329,0.1353345811367035,0.14542151987552643,0.10234331339597702,0.05225933715701103,-0.024910347536206245,-0.08824411779642105,0.08307050168514252,0.24304050207138062],[0.04005037993192673,-0.062126901000738144,0.05429041013121605,-0.013231640681624413,-0.06102827936410904,-0.053423814475536346,0.10973105579614639,-0.0678652971982956,0.016057651489973068],[-0.280805766582489,0.1186172366142273,-0.1746123731136322,0.09029273688793182,0.017656579613685608,-0.15061628818511963,-0.14295892417430878,-0.37331056594848633,-0.2542838454246521]],"biases":[0.4085356593132019,-0.12778343260288239,-0.026732197031378746,0.05316707864403725,-0.1834374964237213]},{"weights":[[0.9955916404724121,0.1902349889278412,0.46608370542526245,0.3547494113445282,0.19332285225391388],[-1.0551307201385498,-0.7846309542655945,-1.0833604335784912,-1.0662657022476196,-0.7229623794555664],[-0.5798908472061157,-0.7975406646728516,-0.5165242552757263,-0.6766117811203003,-0.5167959332466125],[1.0646494626998901,0.2500172555446625,0.7792437672615051,0.5652323961257935,0.1488092541694641],[1.00054132938385,0.8403968214988708,1.0913625955581665,1.3854981660842896,0.9247332215309143]],"biases":[1.002590298652649,-1.7111577987670898,-1.2006919384002686,1.216688871383667,2.0428411960601807]},{"weights":[[-20.35118865966797,-20.345813751220703,-21.32614517211914,-22.486682891845703,-24.396371841430664],[-4,-3.3366119861602783,-3.6235244274139404,-4.514077186584473,-5.409341335296631],[-4,-3.5161287784576416,-3.6473047733306885,-4.636794090270996,-5.351718902587891],[-20.189481735229492,-20.320478439331055,-21.576034545898438,-22.31583595275879,-24.602657318115234]],"biases":[-37.463539123535156,-7.344733238220215,-7.374707221984863,-37.44602584838867]}],"inputLookup":{"0":0,"1":1,"2":2,"3":3,"4":4,"5":5,"6":6,"7":7,"8":8},"inputLookupLength":9,"outputLookup":{"2":0,"4":1,"6":2,"8":3},"outputLookupLength":4,"options":{"inputSize":0,"outputSize":0,"binaryThresh":0.5,"hiddenLayers":[9,5,5],"activation":"sigmoid","leakyReluAlpha":0.01},"trainOpts":{"activation":"sigmoid","iterations":20000,"errorThresh":0.005,"log":true,"logPeriod":2000,"leakyReluAlpha":0.01,"learningRate":0.3,"momentum":0.1,"callbackPeriod":10,"timeout":"Infinity","beta1":0.9,"beta2":0.999,"epsilon":1e-8}}