{"type":"NeuralNetwork","sizes":[9,9,5,5,4],"layers":[{"weights":[],"biases":[]},{"weights":[[2.354085922241211,-41.08699417114258,3.63507080078125,-3.9754748344421387,-1.895866870880127,-42.84438705444336,53.809322357177734,6.563203811645508,-11.855698585510254],[2.259258508682251,99.35808563232422,-3.4930458068847656,-101.07827758789062,-0.9567991495132446,-74.45761108398438,73.47490692138672,-9.996665954589844,1.76961088180542],[-6.301004886627197,41.1160888671875,-7.4078474044799805,77.04270935058594,-50.115482330322266,-50.172950744628906,-38.665225982666016,12.90372085571289,8.678559303283691],[-16.6202335357666,20.318349838256836,9.536746978759766,76.52051544189453,7.012847900390625,-93.85420227050781,83.91972351074219,8.440471649169922,2.230640411376953],[14.031365394592285,-33.225868225097656,-17.254812240600586,32.50337600708008,21.29481315612793,-50.69269561767578,35.08619689941406,-16.10988426208496,-56.56647491455078],[-22.85472297668457,-59.680274963378906,-30.74370765686035,-42.214576721191406,-29.322195053100586,-54.11225509643555,37.36679458618164,25.26799964904785,-8.762445449829102],[-27.009998321533203,-114.83049774169922,-3.7569785118103027,46.66421127319336,68.1570816040039,-4.201083183288574,107.2999267578125,-25.573131561279297,-11.602056503295898],[20.50581932067871,51.55633544921875,0.8456957340240479,114.62016296386719,-0.17840808629989624,-91.2251968383789,-99.1878433227539,5.671280384063721,2.953242778778076],[-1.0602688789367676,-39.61722946166992,-0.6415788531303406,-17.171184539794922,-13.471537590026855,59.677242279052734,61.23656463623047,-2.7035489082336426,29.83559226989746]],"biases":[-6.051844120025635,3.886530876159668,8.487838745117188,-8.167360305786133,5.850627899169922,15.96876335144043,25.9190673828125,-9.610501289367676,-29.284847259521484]},{"weights":[[29.22075653076172,17.415409088134766,-12.50067138671875,-20.973487854003906,-28.50568962097168,8.677653312683105,-11.81989574432373,-10.676640510559082,13.515275001525879],[15.625821113586426,36.96343231201172,0.3032822608947754,34.48052215576172,27.139127731323242,27.415538787841797,-14.502632141113281,-53.32488250732422,-15.43889045715332],[3.252314567565918,35.271156311035156,2.7823874950408936,19.809110641479492,4.889151096343994,-24.204710006713867,-47.719730377197266,20.13567352294922,-25.8865909576416],[-31.050968170166016,13.905426025390625,41.856571197509766,-3.1926088333129883,2.5876522064208984,-29.202007293701172,-17.508520126342773,29.70083236694336,-23.71828269958496],[3.1958091259002686,4.036977767944336,-9.049532890319824,-37.7951774597168,-6.286378860473633,-6.352930545806885,-24.24002456665039,-6.650504112243652,-24.02998924255371]],"biases":[20.91815185546875,-12.754890441894531,-6.991502285003662,9.967611312866211,64.46241760253906]},{"weights":[[-27.676198959350586,-7.843220233917236,-3.4601643085479736,3.433734655380249,0.8896230459213257],[-11.44794750213623,-25.073772430419922,-10.894058227539062,9.070175170898438,-23.32341766357422],[22.969398498535156,12.653177261352539,4.9088945388793945,-14.621846199035645,-3.269043445587158],[-16.24695587158203,-13.466316223144531,-28.111352920532227,-23.673965454101562,-7.241653919219971],[0.5259354114532471,-10.442754745483398,-9.37667179107666,-8.539962768554688,5.839478492736816]],"biases":[-1.306259274482727,2.631364345550537,-22.991567611694336,68.80377197265625,7.347620487213135]},{"weights":[[4.040468692779541,2.1283349990844727,-67.03099822998047,3.963125705718994,-2.038478374481201],[2.1670336723327637,-1.5223848819732666,-7.198703289031982,-7.642301559448242,-35.94702911376953],[-5.0668535232543945,-3.280733585357666,-5.03795862197876,53.13882064819336,5.1451568603515625],[-52.01810836791992,8.535469055175781,4.634450435638428,4.612114906311035,-4.209414958953857]],"biases":[-5.247988224029541,6.555838584899902,-54.24010467529297,-4.925957679748535]}],"inputLookup":{"0":0,"1":8,"2":6,"3":7,"4":1,"5":2,"6":3,"7":4,"8":5},"inputLookupLength":9,"outputLookup":{"2":3,"4":1,"6":0,"8":2},"outputLookupLength":4,"options":{"inputSize":9,"outputSize":5,"binaryThresh":0.5,"hiddenLayers":[9,5,5],"activation":"sigmoid","leakyReluAlpha":0.01},"trainOpts":{"activation":"sigmoid","iterations":20000,"errorThresh":0.005,"log":true,"logPeriod":2000,"leakyReluAlpha":0.01,"learningRate":0.3,"momentum":0.1,"callbackPeriod":10,"timeout":"Infinity","beta1":0.9,"beta2":0.999,"epsilon":1e-8}}