{"type":"NeuralNetwork","sizes":[9,9,5,5,4],"layers":[{"weights":[],"biases":[]},{"weights":[[1.042201280593872,1.9533777236938477,-7.217657566070557,-1.9553885459899902,-0.12354305386543274,-1.7924151420593262,19.883852005004883,6.557096004486084,-11.385106086730957],[9.330551147460938,40.17692565917969,2.087229013442993,-39.172637939453125,12.456266403198242,-40.70983123779297,31.453943252563477,2.9579200744628906,7.368943691253662],[-0.8803204298019409,16.161840438842773,-13.192391395568848,27.971969604492188,-23.782075881958008,-30.20687484741211,-10.061819076538086,0.6271956562995911,7.183115482330322],[-12.263312339782715,-0.12982460856437683,-2.495284080505371,32.004512786865234,-0.6976997256278992,-25.985559463500977,52.58799362182617,7.813390254974365,3.6809115409851074],[19.89879035949707,-19.882614135742188,-17.80404281616211,28.759841918945312,8.876816749572754,-9.939640998840332,14.075040817260742,-6.936944484710693,-31.786849975585938],[-2.033987283706665,-17.59032440185547,-10.839980125427246,-41.17490005493164,-17.360271453857422,-7.443912982940674,21.145671844482422,-1.4535995721817017,-13.203256607055664],[-11.121856689453125,-34.4227180480957,1.1707971096038818,19.95162582397461,15.281081199645996,1.5394611358642578,33.403953552246094,-7.21193790435791,9.761079788208008],[9.81113338470459,14.921167373657227,-10.806341171264648,41.78377151489258,3.2251155376434326,-39.585933685302734,-26.318269729614258,17.94708251953125,-9.739357948303223],[-13.949474334716797,-25.71829605102539,9.165046691894531,7.519217491149902,-4.955724239349365,39.94355773925781,20.593584060668945,14.52500057220459,7.6922078132629395]],"biases":[-12.40756607055664,-5.351996898651123,-1.3910126686096191,-3.2291319370269775,-14.433844566345215,14.802075386047363,2.726850748062134,-6.940780162811279,-15.815274238586426]},{"weights":[[11.73243236541748,16.27146339416504,-9.666463851928711,1.6726715564727783,-19.385173797607422,-6.482448577880859,-14.005889892578125,-10.216301918029785,5.6287126541137695],[14.255724906921387,14.551725387573242,-5.860755443572998,16.071521759033203,13.705365180969238,18.668659210205078,-13.288673400878906,-23.46864891052246,-2.9053585529327393],[-4.8651933670043945,10.589497566223145,7.90377140045166,0.9996389746665955,3.0690505504608154,-7.678055286407471,-13.43301773071289,12.212884902954102,-13.193671226501465],[-22.134077072143555,-12.653463363647461,27.175790786743164,11.766818046569824,-11.56033706665039,-21.224393844604492,8.7445707321167,19.553781509399414,-20.128110885620117],[-6.1363444328308105,4.048304557800293,-12.056741714477539,-14.62343692779541,-4.634697914123535,-1.6794719696044922,-18.75006103515625,14.446757316589355,-15.24241828918457]],"biases":[10.971905708312988,-4.93394136428833,-15.43642520904541,-3.3730592727661133,14.784622192382812]},{"weights":[[-2.4517409801483154,-18.37361717224121,2.345778226852417,19.664194107055664,-14.293190956115723],[-21.480575561523438,-16.05628776550293,2.844172477722168,-5.158478736877441,-5.642899990081787],[18.224365234375,9.242647171020508,6.885493278503418,-20.596092224121094,-13.495616912841797],[-16.712839126586914,-15.186417579650879,-4.742445945739746,-12.135651588439941,-5.574207782745361],[-0.7873994708061218,-26.390913009643555,0.02404150366783142,-11.024003982543945,0.41093531250953674]],"biases":[-0.6298502683639526,16.098373413085938,-16.497591018676758,34.01652908325195,9.041735649108887]},{"weights":[[4.927246570587158,3.5848429203033447,-35.054534912109375,10.99703598022461,-5.321985721588135],[3.5689330101013184,-18.554428100585938,-4.086278915405273,-8.176217079162598,1.5089985132217407],[-5.602397918701172,-4.994790077209473,-3.2027153968811035,28.564146041870117,7.728953838348389],[1.0528122186660767,0.6285118460655212,4.154188632965088,2.2420833110809326,-31.688241958618164]],"biases":[-15.905023574829102,4.168203830718994,-25.202430725097656,-4.195005416870117]}],"inputLookup":{"0":0,"1":8,"2":6,"3":7,"4":1,"5":2,"6":3,"7":4,"8":5},"inputLookupLength":9,"outputLookup":{"2":3,"4":1,"6":0,"8":2},"outputLookupLength":4,"options":{"inputSize":9,"outputSize":5,"binaryThresh":0.5,"hiddenLayers":[9,5,5],"activation":"sigmoid","leakyReluAlpha":0.01},"trainOpts":{"activation":"sigmoid","iterations":20000,"errorThresh":0.005,"log":true,"logPeriod":2000,"leakyReluAlpha":0.01,"learningRate":0.3,"momentum":0.1,"callbackPeriod":10,"timeout":"Infinity","beta1":0.9,"beta2":0.999,"epsilon":1e-8}}