{"type":"NeuralNetwork","sizes":[9,9,5,5,4],"layers":[{"weights":[],"biases":[]},{"weights":[[-20.220531463623047,-0.7886787056922913,10.30627727508545,35.20673751831055,20.323511123657227,-48.3094596862793,50.189117431640625,-4.930599212646484,-17.9466609954834],[1.0637894868850708,-41.46971893310547,-4.284087657928467,-11.5066499710083,-5.683517932891846,50.48185348510742,-38.79393768310547,1.0039544105529785,-21.23458480834961],[11.822343826293945,17.877958297729492,-16.07585906982422,31.233551025390625,4.210597991943359,-47.84452819824219,-27.339080810546875,1.1421793699264526,9.738163948059082],[-6.758664131164551,-18.475797653198242,-14.602991104125977,53.44807815551758,25.807510375976562,-4.58720588684082,-13.288154602050781,12.15678596496582,-3.1572868824005127],[-10.222731590270996,-24.40225601196289,-2.3541676998138428,-20.647886276245117,2.921539545059204,31.251930236816406,20.031532287597656,-7.8553338050842285,-16.13602066040039],[-32.493797302246094,51.613765716552734,8.225592613220215,11.596431732177734,2.104736804962158,-20.766382217407227,-39.46383285522461,6.654435634613037,-8.391093254089355],[-12.354177474975586,2.0148184299468994,-13.589814186096191,-22.77509307861328,8.738736152648926,-33.91538619995117,37.78483963012695,1.822284460067749,-4.844324588775635],[-5.128974437713623,-51.946372985839844,21.00284767150879,43.8887939453125,-14.157175064086914,7.2859416007995605,-25.70112419128418,8.972095489501953,-19.97210693359375],[5.275476932525635,46.87198257446289,-20.1383056640625,12.255660057067871,2.090217351913452,-19.373228073120117,-17.061721801757812,-21.393333435058594,-30.971590042114258]],"biases":[-19.932735443115234,18.260581970214844,2.046830177307129,-0.008730346336960793,10.091565132141113,-4.1508941650390625,4.605448246002197,-4.289536476135254,6.28247594833374]},{"weights":[[-12.515572547912598,29.93778419494629,17.201383590698242,16.211462020874023,-15.525286674499512,-10.291000366210938,-8.934502601623535,23.91878890991211,-10.70525074005127],[-6.653608322143555,30.27305030822754,10.851547241210938,10.332779884338379,8.8006010055542,-36.497291564941406,-34.18562698364258,-7.5570244789123535,-24.595993041992188],[14.947212219238281,10.49647331237793,-10.860572814941406,-9.08607006072998,19.581676483154297,-29.165258407592773,14.668356895446777,-11.402914047241211,-9.829861640930176],[-0.02323516458272934,-9.07231616973877,15.252039909362793,19.91728401184082,-0.6308271288871765,-23.52880859375,-19.42769432067871,17.99859619140625,-3.357408285140991],[-29.447175979614258,14.005868911743164,2.2463502883911133,8.519484519958496,-3.6092629432678223,-17.349788665771484,-9.528033256530762,-1.3109160661697388,-22.35588264465332]],"biases":[-13.667621612548828,-3.085052967071533,-9.7699613571167,-16.732553482055664,3.441634178161621]},{"weights":[[-19.240570068359375,-14.034162521362305,10.960881233215332,-9.20404052734375,-5.564136981964111],[-17.073564529418945,1.382361650466919,-21.6466064453125,-16.05245018005371,-6.795643329620361],[22.749401092529297,-0.10842869430780411,-19.209463119506836,23.690231323242188,-17.336339950561523],[3.7586212158203125,-14.66439437866211,-0.48210811614990234,0.5349550843238831,7.881392002105713],[-5.564047813415527,-17.94595718383789,21.22930145263672,13.911020278930664,-19.919605255126953]],"biases":[3.172297954559326,8.935744285583496,-25.89793586730957,-6.442577838897705,14.014678001403809]},{"weights":[[-42.497989654541016,-0.49357643723487854,17.961328506469727,-5.128163814544678,14.956138610839844],[-2.5166914463043213,6.113054275512695,-4.291133880615234,10.428853034973145,8.126908302307129],[-3.4042539596557617,-7.019420623779297,-5.580931663513184,-4.917963027954102,-4.465293884277344],[4.855931282043457,-6.759312152862549,-41.6002197265625,-13.833600997924805,3.8377110958099365]],"biases":[-15.58692741394043,-9.85932731628418,3.6440839767456055,-4.132899284362793]}],"inputLookup":{"0":0,"1":8,"2":6,"3":7,"4":1,"5":2,"6":3,"7":4,"8":5},"inputLookupLength":9,"outputLookup":{"2":3,"4":1,"6":0,"8":2},"outputLookupLength":4,"options":{"inputSize":9,"outputSize":5,"binaryThresh":0.5,"hiddenLayers":[9,5,5],"activation":"sigmoid","leakyReluAlpha":0.01},"trainOpts":{"activation":"sigmoid","iterations":20000,"errorThresh":0.005,"log":true,"logPeriod":2000,"leakyReluAlpha":0.01,"learningRate":0.3,"momentum":0.1,"callbackPeriod":10,"timeout":"Infinity","beta1":0.9,"beta2":0.999,"epsilon":1e-8}}