{"type":"NeuralNetwork","sizes":[9,9,5,5,4],"layers":[{"weights":[],"biases":[]},{"weights":[[-48.62118911743164,-42.802879333496094,11.57056713104248,63.840946197509766,5.505490779876709,-53.603919982910156,54.921607971191406,-14.851543426513672,7.73910665512085],[15.84865665435791,-75.09839630126953,5.967005252838135,-34.54329299926758,0.6218810081481934,105.05341339111328,-65.6294937133789,-3.443355083465576,-23.884450912475586],[16.66644859313965,34.724674224853516,-9.960325241088867,23.52437973022461,1.616416335105896,-55.3984375,-34.92378616333008,-2.063019037246704,9.04636001586914],[15.113285064697266,-62.48372268676758,-29.60713005065918,61.884361267089844,55.36154556274414,-13.846353530883789,-33.588462829589844,17.998584747314453,-11.207703590393066],[5.387718677520752,-83.33883666992188,-6.825170516967773,-30.649444580078125,-27.71178436279297,20.688838958740234,52.019683837890625,-9.99448299407959,-1.9685481786727905],[-53.432254791259766,67.11186218261719,45.7129020690918,-7.780457496643066,0.5322685837745667,-37.87554931640625,-52.45404052734375,-2.7796273231506348,-30.867826461791992],[-3.500472068786621,6.52274751663208,-9.337873458862305,-26.62033462524414,10.419157028198242,-77.01815795898438,76.05098724365234,23.529882431030273,-13.329036712646484],[17.257843017578125,-95.4782943725586,9.170620918273926,81.17301940917969,-14.861465454101562,-11.911785125732422,-44.46488571166992,-1.7012138366699219,-12.147090911865234],[31.017358779907227,47.25740051269531,-37.2957649230957,42.184906005859375,-8.226056098937988,-43.9898681640625,-29.890480041503906,-10.005338668823242,-32.92546463012695]],"biases":[-17.332557678222656,13.290730476379395,-4.2658610343933105,2.8987414836883545,15.12330436706543,-7.253948211669922,18.466995239257812,0.8592044711112976,17.268230438232422]},{"weights":[[-6.218111038208008,47.96458053588867,24.38686752319336,26.037822723388672,5.568887233734131,-25.353912353515625,-25.8889102935791,36.44502639770508,-23.06846046447754],[-25.250961303710938,12.987649917602539,-16.26844596862793,29.377853393554688,31.508922576904297,-28.852325439453125,-44.6659049987793,-13.704178810119629,-26.52602195739746],[11.031187057495117,31.0625057220459,-33.834354400634766,-21.38398551940918,25.42548179626465,-40.77033233642578,29.736425399780273,-10.550043106079102,-31.11739730834961],[38.81382751464844,-29.09122085571289,12.40539836883545,40.088260650634766,-32.30089569091797,-6.029313087463379,-24.89269256591797,48.80376434326172,7.299028396606445],[-47.45586395263672,23.753055572509766,-16.336387634277344,26.1049747467041,-9.220906257629395,-35.699134826660156,-26.617565155029297,-38.55009078979492,-30.03783416748047]],"biases":[-2.6951639652252197,-3.3164801597595215,-0.518839418888092,-34.18516159057617,34.005950927734375]},{"weights":[[-19.645126342773438,-14.88318157196045,4.8781914710998535,-5.833296775817871,-5.554027557373047],[-6.922168731689453,1.36045503616333,-55.59307861328125,-18.799972534179688,-18.73642921447754],[10.39352035522461,3.5986554622650146,-30.237138748168945,5.839572429656982,-5.16414737701416],[-35.175968170166016,-23.169240951538086,-48.59857940673828,-0.3688102960586548,24.727436065673828],[0.004498505033552647,-12.70600414276123,1.2191965579986572,-2.049123764038086,-15.49895191192627]],"biases":[-3.048025131225586,-0.6343875527381897,-9.937294006347656,11.905289649963379,16.934057235717773]},{"weights":[[-76.82131958007812,-3.7331535816192627,9.193718910217285,0.8656933903694153,7.343828201293945],[-3.5842974185943604,14.886109352111816,-3.1416568756103516,0.7823967933654785,2.2953526973724365],[-4.0268683433532715,-9.136908531188965,-10.012042045593262,-2.1172120571136475,-10.143467903137207],[11.289084434509277,-12.297009468078613,-96.43859100341797,0.5226104855537415,3.1012473106384277]],"biases":[-8.503578186035156,-3.6143500804901123,9.131062507629395,-3.871784210205078]}],"inputLookup":{"0":0,"1":8,"2":6,"3":7,"4":1,"5":2,"6":3,"7":4,"8":5},"inputLookupLength":9,"outputLookup":{"2":3,"4":1,"6":0,"8":2},"outputLookupLength":4,"options":{"inputSize":9,"outputSize":5,"binaryThresh":0.5,"hiddenLayers":[9,5,5],"activation":"sigmoid","leakyReluAlpha":0.01},"trainOpts":{"activation":"sigmoid","iterations":20000,"errorThresh":0.005,"log":true,"logPeriod":2000,"leakyReluAlpha":0.01,"learningRate":0.3,"momentum":0.1,"callbackPeriod":10,"timeout":"Infinity","beta1":0.9,"beta2":0.999,"epsilon":1e-8}}